{"learner":{"attributes":{"best_iteration":"1","best_score":"3.5570151418257256","scikit_learn":"{\"_estimator_type\": \"regressor\"}"},"feature_names":[],"feature_types":[],"gradient_booster":{"model":{"cats":{"enc":[],"feature_segments":[],"sorted_idx":[]},"gbtree_model_param":{"num_parallel_tree":"1","num_trees":"152"},"iteration_indptr":[0,1,2,3,4,5,6,7,8,9,10,11,12,13,14,15,16,17,18,19,20,21,22,23,24,25,26,27,28,29,30,31,32,33,34,35,36,37,38,39,40,41,42,43,44,45,46,47,48,49,50,51,52,53,54,55,56,57,58,59,60,61,62,63,64,65,66,67,68,69,70,71,72,73,74,75,76,77,78,79,80,81,82,83,84,85,86,87,88,89,90,91,92,93,94,95,96,97,98,99,100,101,102,103,104,105,106,107,108,109,110,111,112,113,114,115,116,117,118,119,120,121,122,123,124,125,126,127,128,129,130,131,132,133,134,135,136,137,138,139,140,141,142,143,144,145,146,147,148,149,150,151,152],"tree_info":[0,0,0,0,0,0,0,0,0,0,0,0,0,0,0,0,0,0,0,0,0,0,0,0,0,0,0,0,0,0,0,0,0,0,0,0,0,0,0,0,0,0,0,0,0,0,0,0,0,0,0,0,0,0,0,0,0,0,0,0,0,0,0,0,0,0,0,0,0,0,0,0,0,0,0,0,0,0,0,0,0,0,0,0,0,0,0,0,0,0,0,0,0,0,0,0,0,0,0,0,0,0,0,0,0,0,0,0,0,0,0,0,0,0,0,0,0,0,0,0,0,0,0,0,0,0,0,0,0,0,0,0,0,0,0,0,0,0,0,0,0,0,0,0,0,0,0,0,0,0,0,0],"trees":[{"base_weights":[-1.2457444E-2,8.6460376E-1,-8.464866E-2,2.9682943E-1,1.5660506E0,2.1709079E-1,-1.9142714E-1,9.685846E-1,-6.655083E-1,1.0930262E0,4.4450493E0,-1.0625978E-1,6.273775E-1,-5.2952796E-1,-8.829897E-2,1.366283E0,-2.7735952E-1,-6.103358E-2,-2.542464E-1,2.8618648E0,5.406736E-1,2.0357952E-1,5.6515317E-2,1.840446E0,-1.9500473E-1,1.2468505E0,1.2204158E-1,-3.4463736E-1,-1.5928979E0,3.0193824E-1,-1.7659283E-1,6.280702E-2,1.094769E-2,-6.229783E-2,2.5056105E-2,4.3715958E-2,-1.7621139E-2,1.7085665E-1,4.1351438E-2,3.434454E-2,-3.8488822E-3,1.1192586E-1,1.809222E-2,2.8423214E-2,-9.8434E-3,7.341001E-2,2.9074391E-2,5.7289444E-2,-2.7209155E-3,7.471745E-2,-1.2828082E-2,-2.8784284E-2,-1.05075546E-1,-5.371404E-2,1.2515661E-2,-8.195862E-3,7.7232528E-3],"categories":[],"categories_nodes":[],"categories_segments":[],"categories_sizes":[],"default_left":[0,0,0,0,0,0,0,0,0,0,0,0,0,0,0,0,0,0,0,0,0,0,0,0,0,0,0,0,0,0,0,0,0,0,0,0,0,0,0,0,0,0,0,0,0,0,0,0,0,0,0,0,0,0,0,0,0],"id":0,"left_children":[1,3,5,7,9,11,13,15,17,19,21,23,25,27,29,31,33,-1,35,37,39,-1,-1,41,43,45,47,49,51,53,55,-1,-1,-1,-1,-1,-1,-1,-1,-1,-1,-1,-1,-1,-1,-1,-1,-1,-1,-1,-1,-1,-1,-1,-1,-1,-1],"loss_changes":[2.8788275E2,1.3640231E2,1.3550021E2,1.2657739E2,1.9896399E2,1.4604669E2,1.0808474E2,5.7968063E1,4.393948E1,1.2814384E2,9.876761E1,1.06824646E2,1.5123956E2,1.4107983E2,8.218739E1,6.1811295E1,6.251014E1,0E0,3.8283607E1,1.1561392E2,4.3112564E1,0E0,0E0,5.768421E1,9.039143E1,6.7059265E1,1.0319476E2,1.4765924E2,1.2144116E2,1.0732533E2,8.1693375E1,0E0,0E0,0E0,0E0,0E0,0E0,0E0,0E0,0E0,0E0,0E0,0E0,0E0,0E0,0E0,0E0,0E0,0E0,0E0,0E0,0E0,0E0,0E0,0E0,0E0,0E0],"parents":[2147483647,0,0,1,1,2,2,3,3,4,4,5,5,6,6,7,7,8,8,9,9,10,10,11,11,12,12,13,13,14,14,15,15,16,16,18,18,19,19,20,20,23,23,24,24,25,25,26,26,27,27,28,28,29,29,30,30],"right_children":[2,4,6,8,10,12,14,16,18,20,22,24,26,28,30,32,34,-1,36,38,40,-1,-1,42,44,46,48,50,52,54,56,-1,-1,-1,-1,-1,-1,-1,-1,-1,-1,-1,-1,-1,-1,-1,-1,-1,-1,-1,-1,-1,-1,-1,-1,-1,-1],"split_conditions":[-8.986205E-1,-2.0850495E-1,-3.654235E-1,1.4830638E-4,1E0,-4.1258276E-1,-1.0491265E-1,3.3851376E-1,-2.191722E-1,-2.9145724E-1,1.3079904E-1,-7.312484E-1,1.395421E-1,1E0,1.7499956E-1,8.484437E-2,-2.1923861E-1,-6.103358E-2,-8.063766E-1,1.8173535E-1,2.146171E-1,2.0357952E-1,5.6515317E-2,-9.391254E-1,-2.8644829E0,-5.485185E-1,-6.110895E-1,-9.1165864E-1,-7.039712E-1,-1.0537852E0,1E0,6.280702E-2,1.094769E-2,-6.229783E-2,2.5056105E-2,4.3715958E-2,-1.7621139E-2,1.7085665E-1,4.1351438E-2,3.434454E-2,-3.8488822E-3,1.1192586E-1,1.809222E-2,2.8423214E-2,-9.8434E-3,7.341001E-2,2.9074391E-2,5.7289444E-2,-2.7209155E-3,7.471745E-2,-1.2828082E-2,-2.8784284E-2,-1.05075546E-1,-5.371404E-2,1.2515661E-2,-8.195862E-3,7.7232528E-3],"split_indices":[40,6,39,15,43,5,31,0,27,1,15,27,16,44,29,17,31,0,29,36,1,0,0,1,7,29,29,27,0,6,50,0,0,0,0,0,0,0,0,0,0,0,0,0,0,0,0,0,0,0,0,0,0,0,0,0,0],"split_type":[0,0,0,0,0,0,0,0,0,0,0,0,0,0,0,0,0,0,0,0,0,0,0,0,0,0,0,0,0,0,0,0,0,0,0,0,0,0,0,0,0,0,0,0,0,0,0,0,0,0,0,0,0,0,0,0,0],"sum_hessian":[4.5449053E3,3.437625E2,4.2011426E3,1.9171419E2,1.5204834E2,1.0970657E3,3.104077E3,1.13017624E2,7.869656E1,1.3302145E2,1.9026876E1,6.140903E2,4.829754E2,7.2312787E2,2.3809492E3,8.564695E1,2.7370676E1,1.6244473E1,6.245209E1,2.9577797E1,1.03443665E2,8.176466E0,1.085041E1,2.4954674E1,5.891356E2,2.1548706E2,2.674883E2,6.1843536E2,1.046925E2,4.3799854E2,1.9429506E3,4.823375E1,3.74132E1,9.864537E0,1.7506138E1,8.978024E0,5.3474068E1,8.166783E0,2.1411013E1,5.3765E1,4.967866E1,8.213867E0,1.6740807E1,6.0044777E1,5.290908E2,3.7421192E1,1.7806587E2,2.6851023E1,2.406373E2,1.5863797E1,6.025716E2,8.095073E1,2.3741766E1,2.1257435E1,4.167411E2,1.5902192E3,3.5273138E2],"tree_param":{"num_deleted":"0","num_feature":"52","num_nodes":"57","size_leaf_vector":"1"}},{"base_weights":[-1.0770783E-2,5.1421016E-1,-1.4574791E-1,1.0402306E-1,1.1002432E0,1.3771594E-1,-2.6177794E-1,-2.6233286E-2,2.1215785E0,2.817799E0,7.5233847E-1,4.348272E-1,-2.6158053E-1,-5.4922146E-1,-9.683667E-2,9.938299E-1,-3.386665E-1,8.248892E-3,3.393665E0,-4.2272165E-2,3.7910368E0,9.6978235E-1,-8.237148E-1,-2.1326543E-1,9.607486E-1,-4.626469E-1,7.9587203E-1,-6.783974E-1,3.3002388E-1,1.1519794E-1,-5.0317425E-1,5.3274207E-2,3.1321994E-3,-2.5565859E-2,3.8479976E-3,1.413228E-1,3.653884E-2,2.2296126E-1,6.0407553E-2,2.0379208E-2,6.8724975E-2,-5.822875E-2,-6.6126545E-4,-2.1944002E-3,-9.286154E-2,1.0045251E-1,2.5140775E-2,-2.9554E-2,-3.3325215E-3,-1.156755E-2,4.459165E-2,-1.4593847E-3,-2.553747E-2,3.3326093E-2,-0E0,-1.5879031E-2,9.422926E-3,-2.395172E-2,4.4202674E-3],"categories":[],"categories_nodes":[],"categories_segments":[],"categories_sizes":[],"default_left":[0,0,0,0,0,0,0,0,0,0,0,0,0,0,0,0,0,0,0,0,0,0,0,0,0,0,0,0,0,0,0,0,0,0,0,0,0,0,0,0,0,0,0,0,0,0,0,0,0,0,0,0,0,0,0,0,0,0,0],"id":1,"left_children":[1,3,5,7,9,11,13,15,17,19,21,23,25,27,29,31,33,-1,35,-1,37,39,41,43,45,47,49,51,53,55,57,-1,-1,-1,-1,-1,-1,-1,-1,-1,-1,-1,-1,-1,-1,-1,-1,-1,-1,-1,-1,-1,-1,-1,-1,-1,-1,-1,-1],"loss_changes":[3.2068863E2,2.2200961E2,1.1853636E2,1.442429E2,2.2251208E2,1.24438614E2,1.2096367E2,1.6485529E2,7.558127E1,2.715356E2,1.1107703E2,2.0547034E2,9.58211E1,1.0627841E2,1.4038551E2,8.358016E1,9.539574E1,0E0,4.3121582E1,0E0,3.048938E2,1.0438428E2,3.507141E1,1.0826412E2,9.095261E1,6.889408E1,6.0165787E1,8.820807E1,3.1058956E1,1.375204E2,1.076474E2,0E0,0E0,0E0,0E0,0E0,0E0,0E0,0E0,0E0,0E0,0E0,0E0,0E0,0E0,0E0,0E0,0E0,0E0,0E0,0E0,0E0,0E0,0E0,0E0,0E0,0E0,0E0,0E0],"parents":[2147483647,0,0,1,1,2,2,3,3,4,4,5,5,6,6,7,7,8,8,9,9,10,10,11,11,12,12,13,13,14,14,15,15,16,16,18,18,20,20,21,21,22,22,23,23,24,24,25,25,26,26,27,27,28,28,29,29,30,30],"right_children":[2,4,6,8,10,12,14,16,18,20,22,24,26,28,30,32,34,-1,36,-1,38,40,42,44,46,48,50,52,54,56,58,-1,-1,-1,-1,-1,-1,-1,-1,-1,-1,-1,-1,-1,-1,-1,-1,-1,-1,-1,-1,-1,-1,-1,-1,-1,-1,-1,-1],"split_conditions":[-4.948628E-1,-1.3455895E-1,-2.930284E-1,1.3529848E0,-5.303317E-1,1.5143114E-1,1.1987402E-2,-5.94977E-1,1.2850377E-1,-9.1218823E-1,6.043035E-1,-9.388953E-1,3.8517532E-1,1.0700196E0,1.0562667E0,3.3521004E-2,-3.754893E-1,8.248892E-3,4.1928464E-1,-4.2272165E-2,-2.1451968E-1,9.15765E-1,-7.200101E-1,3.3690017E-1,-1.3246895E0,-3.6058232E-1,-1.9735519E-2,-7.189698E-1,-2.513725E-1,-2.304179E-1,2.4042892E0,5.3274207E-2,3.1321994E-3,-2.5565859E-2,3.8479976E-3,1.413228E-1,3.653884E-2,2.2296126E-1,6.0407553E-2,2.0379208E-2,6.8724975E-2,-5.822875E-2,-6.6126545E-4,-2.1944002E-3,-9.286154E-2,1.0045251E-1,2.5140775E-2,-2.9554E-2,-3.3325215E-3,-1.156755E-2,4.459165E-2,-1.4593847E-3,-2.553747E-2,3.3326093E-2,-0E0,-1.5879031E-2,9.422926E-3,-2.395172E-2,4.4202674E-3],"split_indices":[40,6,39,27,28,27,0,39,0,0,6,5,5,29,39,15,7,0,30,0,1,5,40,6,2,30,6,7,32,7,31,0,0,0,0,0,0,0,0,0,0,0,0,0,0,0,0,0,0,0,0,0,0,0,0,0,0,0,0],"split_type":[0,0,0,0,0,0,0,0,0,0,0,0,0,0,0,0,0,0,0,0,0,0,0,0,0,0,0,0,0,0,0,0,0,0,0,0,0,0,0,0,0,0,0,0,0,0,0,0,0,0,0,0,0,0,0,0,0,0,0],"sum_hessian":[4.522563E3,9.235195E2,3.5990435E3,5.4485254E2,3.7866696E2,1.0447062E3,2.5543374E3,5.135705E2,3.1282005E1,6.1293957E1,3.17373E2,5.99184E2,4.4552213E2,9.291803E2,1.6251571E3,1.19245125E2,3.9432538E2,1.381585E1,1.7466154E1,1.1265517E1,5.002844E1,2.7968222E2,3.769077E1,2.6877786E2,3.3040613E2,3.7544775E2,7.0074356E1,8.1075165E2,1.184287E2,1.0685226E3,5.5663446E2,6.22751E1,5.6970024E1,1.872108E2,2.071146E2,9.371015E0,8.0951395E0,1.4287083E1,3.5741356E1,2.3187653E2,4.78057E1,1.4454558E1,2.3236212E1,2.583385E2,1.0439379E1,1.3502654E1,3.1690347E2,1.493352E2,2.2611255E2,2.6067331E1,4.4007027E1,1.7540771E2,6.3534393E2,3.3797733E1,8.463097E1,2.5097021E2,8.1755237E2,3.8277628E2,1.7385817E2],"tree_param":{"num_deleted":"0","num_feature":"52","num_nodes":"59","size_leaf_vector":"1"}},{"base_weights":[-1.2045768E-2,4.5929015E-1,-1.3247606E-1,8.531143E-2,9.999817E-1,1.2733702E-1,-2.4607815E-1,9.017313E-1,-1.5557946E-1,2.5277927E0,6.9061756E-1,6.769669E-2,2.511147E0,-4.4168192E-1,-8.043597E-2,3.6316195E-1,1.9119883E0,-3.3157444E-1,1.2015021E0,-3.8139258E-2,3.3210022E0,8.9422995E-1,-7.052463E-1,3.6043447E-1,-3.3184874E-1,1.00988485E-1,1.888482E-2,-6.672386E-1,-8.491702E-2,1.7450707E-1,-5.149662E-1,4.613531E-2,-2.2270719E-2,1.2367411E-1,3.402309E-2,-2.4631653E-2,3.358706E-3,1.0010383E-2,9.812937E-2,2.0658195E-1,5.187891E-2,1.8010428E-2,6.738699E-2,-4.8381165E-2,2.7145E-3,-5.4423106E-3,2.3188168E-2,-1.3663956E-2,3.7587162E-2,-5.6211337E-2,-1.654192E-2,3.3767086E-2,-5.1960615E-3,7.4889505E-4,3.0197639E-2,-2.4260152E-2,4.531407E-3],"categories":[],"categories_nodes":[],"categories_segments":[],"categories_sizes":[],"default_left":[0,0,0,0,0,0,0,0,0,0,0,0,0,0,0,0,0,0,0,0,0,0,0,0,0,0,0,0,0,0,0,0,0,0,0,0,0,0,0,0,0,0,0,0,0,0,0,0,0,0,0,0,0,0,0,0,0],"id":2,"left_children":[1,3,5,7,9,11,13,15,17,19,21,23,25,27,29,31,33,35,37,-1,39,41,43,45,47,-1,-1,49,51,53,55,-1,-1,-1,-1,-1,-1,-1,-1,-1,-1,-1,-1,-1,-1,-1,-1,-1,-1,-1,-1,-1,-1,-1,-1,-1,-1],"loss_changes":[2.5912827E2,1.8745203E2,1.07437805E2,1.08899414E2,1.751933E2,1.5656905E2,8.185712E1,6.678925E1,1.02701454E2,1.9879013E2,9.178813E1,1.26844734E2,3.823021E1,9.307677E1,1.5245131E2,1.1266647E2,6.3992172E1,8.282974E1,8.5755135E1,0E0,2.7373157E2,1.07532684E2,3.0579699E1,1.4030609E2,9.079388E1,0E0,0E0,9.667883E1,4.849551E1,1.07638504E2,9.9907715E1,0E0,0E0,0E0,0E0,0E0,0E0,0E0,0E0,0E0,0E0,0E0,0E0,0E0,0E0,0E0,0E0,0E0,0E0,0E0,0E0,0E0,0E0,0E0,0E0,0E0,0E0],"parents":[2147483647,0,0,1,1,2,2,3,3,4,4,5,5,6,6,7,7,8,8,9,9,10,10,11,11,12,12,13,13,14,14,15,15,16,16,17,17,18,18,20,20,21,21,22,22,23,23,24,24,27,27,28,28,29,29,30,30],"right_children":[2,4,6,8,10,12,14,16,18,20,22,24,26,28,30,32,34,36,38,-1,40,42,44,46,48,-1,-1,50,52,54,56,-1,-1,-1,-1,-1,-1,-1,-1,-1,-1,-1,-1,-1,-1,-1,-1,-1,-1,-1,-1,-1,-1,-1,-1,-1,-1],"split_conditions":[-4.948628E-1,-1.3455895E-1,-1.4811924E-1,-5.822186E-1,-5.358814E-1,-9.749896E-2,2.3113745E-1,-6.033044E-1,1.1144658E0,-9.282454E-1,6.043035E-1,1.4537057E-1,-8.794934E-2,6.105372E-1,1.0562667E0,-1.9074671E0,-1.7537121E-1,-3.754893E-1,-3.0327258E-1,-3.8139258E-2,-5.551675E-1,9.15765E-1,-6.653804E-1,-9.388953E-1,6.0232896E-1,1.00988485E-1,1.888482E-2,-3.2222423E-1,-4.705695E-2,1.2606157E0,2.4042892E0,4.613531E-2,-2.2270719E-2,1.2367411E-1,3.402309E-2,-2.4631653E-2,3.358706E-3,1.0010383E-2,9.812937E-2,2.0658195E-1,5.187891E-2,1.8010428E-2,6.738699E-2,-4.8381165E-2,2.7145E-3,-5.4423106E-3,2.3188168E-2,-1.3663956E-2,3.7587162E-2,-5.6211337E-2,-1.654192E-2,3.3767086E-2,-5.1960615E-3,7.4889505E-4,3.0197639E-2,-2.4260152E-2,4.531407E-3],"split_indices":[40,6,38,39,28,31,1,0,27,0,6,27,39,30,39,7,5,7,15,0,29,5,40,5,5,0,0,41,40,0,31,0,0,0,0,0,0,0,0,0,0,0,0,0,0,0,0,0,0,0,0,0,0,0,0,0,0],"split_type":[0,0,0,0,0,0,0,0,0,0,0,0,0,0,0,0,0,0,0,0,0,0,0,0,0,0,0,0,0,0,0,0,0,0,0,0,0,0,0,0,0,0,0,0,0,0,0,0,0,0,0,0,0,0,0,0,0],"sum_hessian":[4.562089E3,9.2694714E2,3.6351418E3,5.4953625E2,3.774109E2,1.1052905E3,2.5298513E3,1.2414194E2,4.2539435E2,6.1028767E1,3.163821E2,1.0804008E3,2.4889755E1,1.1579314E3,1.37192E3,8.287701E1,4.1264927E1,3.7802798E2,4.7366356E1,1.0289462E1,5.0739307E1,2.7685913E2,3.952297E1,6.239461E2,4.5645468E2,1.595469E1,8.935064E0,7.08008E2,4.499234E2,8.650963E2,5.0682373E2,3.9890114E1,4.2986893E1,8.436114E0,3.282881E1,1.7911046E2,1.9891754E2,3.50764E1,1.2289957E1,1.3569216E1,3.717009E1,2.2991827E2,4.694087E1,1.7623207E1,2.1899763E1,2.6996692E2,3.5397916E2,4.2486508E2,3.1589594E1,5.9214947E1,6.487931E2,2.8832577E1,4.2109082E2,7.3525464E2,1.2984164E2,3.5163004E2,1.5519368E2],"tree_param":{"num_deleted":"0","num_feature":"52","num_nodes":"57","size_leaf_vector":"1"}},{"base_weights":[4.7251425E-4,4.8867643E-1,-1.2101364E-1,2.4956197E-2,9.8833156E-1,1.21162586E-1,-2.2279052E-1,7.6429176E-1,-2.8668538E-1,2.5077982E0,7.56929E-1,3.9059725E-1,-2.5577754E-1,-6.913838E-1,-1.1428393E-1,1.8367937E0,2.4451154E-1,-1.2585541E0,-1.7754069E-2,-3.405142E-2,3.6489303E0,-6.228807E-1,8.972643E-1,6.838191E-2,9.7096044E-1,5.4022048E-2,-3.3877882E-1,3.08785E-1,-8.452618E-1,1.6259648E0,-1.5882349E-1,8.547068E-2,2.1681162E-2,3.1867705E-2,-9.5475605E-3,-8.3064966E-2,-6.7904377E-3,3.5959193E-3,-5.6765076E-2,1.6623092E-1,5.179483E-2,1.4375872E-2,-6.1363447E-2,3.2047197E-2,-1.6979847E-2,1.1513665E-2,-1.8924864E-2,4.961617E-2,1.5729431E-2,-2.2359725E-2,-2.1257391E-3,-1.00922175E-2,4.83265E-2,-4.1492596E-2,-8.483643E-3,1.3827871E-2,1.0766194E-1,-5.6089847E-3,2.3884969E-2],"categories":[],"categories_nodes":[],"categories_segments":[],"categories_sizes":[],"default_left":[0,0,0,0,0,0,0,0,0,0,0,0,0,0,0,0,0,0,0,0,0,0,0,0,0,0,0,0,0,0,0,0,0,0,0,0,0,0,0,0,0,0,0,0,0,0,0,0,0,0,0,0,0,0,0,0,0,0,0],"id":3,"left_children":[1,3,5,7,9,11,13,15,17,19,21,23,25,27,29,31,33,35,37,-1,39,41,43,45,47,-1,49,51,53,55,57,-1,-1,-1,-1,-1,-1,-1,-1,-1,-1,-1,-1,-1,-1,-1,-1,-1,-1,-1,-1,-1,-1,-1,-1,-1,-1,-1,-1],"loss_changes":[2.7130518E2,2.1095699E2,9.0324234E1,1.0998693E2,1.497381E2,1.1033709E2,1.3083055E2,7.762132E1,8.737358E1,2.4564151E2,7.544031E1,1.1809752E2,7.8222565E1,7.515474E1,1.6277261E2,4.680565E1,4.583576E1,1.1119142E2,6.914746E1,0E0,1.3910876E2,5.9429214E1,8.864456E1,9.077129E1,6.6682236E1,0E0,4.733427E1,5.6666412E1,1.2605325E2,1.1570538E2,5.5184082E1,0E0,0E0,0E0,0E0,0E0,0E0,0E0,0E0,0E0,0E0,0E0,0E0,0E0,0E0,0E0,0E0,0E0,0E0,0E0,0E0,0E0,0E0,0E0,0E0,0E0,0E0,0E0,0E0],"parents":[2147483647,0,0,1,1,2,2,3,3,4,4,5,5,6,6,7,7,8,8,9,9,10,10,11,11,12,12,13,13,14,14,15,15,16,16,17,17,18,18,20,20,21,21,22,22,23,23,24,24,26,26,27,27,28,28,29,29,30,30],"right_children":[2,4,6,8,10,12,14,16,18,20,22,24,26,28,30,32,34,36,38,-1,40,42,44,46,48,-1,50,52,54,56,58,-1,-1,-1,-1,-1,-1,-1,-1,-1,-1,-1,-1,-1,-1,-1,-1,-1,-1,-1,-1,-1,-1,-1,-1,-1,-1,-1,-1],"split_conditions":[-5.0211227E-1,-2.5343505E-1,-2.930284E-1,-5.613351E-1,-4.1521308E-1,1.7268486E-1,-1.0491265E-1,-1.9036545E-1,-3.156768E-1,-7.7702254E-1,-6.390978E-1,-6.033044E-1,-3.2472903E-1,-1.2247156E0,-1.10130385E-1,9.270949E-2,-8.427793E-2,-6.1081535E-1,1.1079783E0,-3.405142E-2,-2.3428668E-1,7.1960546E-2,6.043035E-1,-1.0968812E0,-1.606599E-1,5.4022048E-2,-3.6058232E-1,-9.0051776E-1,4.912031E-2,9.7987235E-2,1.0152467E0,8.547068E-2,2.1681162E-2,3.1867705E-2,-9.5475605E-3,-8.3064966E-2,-6.7904377E-3,3.5959193E-3,-5.6765076E-2,1.6623092E-1,5.179483E-2,1.4375872E-2,-6.1363447E-2,3.2047197E-2,-1.6979847E-2,1.1513665E-2,-1.8924864E-2,4.961617E-2,1.5729431E-2,-2.2359725E-2,-2.1257391E-3,-1.00922175E-2,4.83265E-2,-4.1492596E-2,-8.483643E-3,1.3827871E-2,1.0766194E-1,-5.6089847E-3,2.3884969E-2],"split_indices":[40,6,39,31,39,27,31,33,31,0,7,0,13,2,38,18,18,2,2,0,1,2,6,2,0,0,30,1,7,0,7,0,0,0,0,0,0,0,0,0,0,0,0,0,0,0,0,0,0,0,0,0,0,0,0,0,0,0,0],"split_type":[0,0,0,0,0,0,0,0,0,0,0,0,0,0,0,0,0,0,0,0,0,0,0,0,0,0,0,0,0,0,0,0,0,0,0,0,0,0,0,0,0,0,0,0,0,0,0,0,0,0,0,0,0,0,0,0,0,0,0],"sum_hessian":[4.569122E3,9.0956165E2,3.6595605E3,4.7304135E2,4.3652032E2,1.082182E3,2.5773784E3,1.3959776E2,3.3344357E2,5.4977917E1,3.8154242E2,6.313528E2,4.5082925E2,4.8223337E2,2.095145E3,4.3790054E1,9.58077E1,7.051432E1,2.6292926E2,1.3074733E1,4.1903183E1,3.4456448E1,3.4708597E2,4.076226E2,2.2373018E2,1.5790471E1,4.3503876E2,6.3858166E1,4.183752E2,5.0400383E1,2.0447448E3,2.1217962E1,2.2572092E1,3.847719E1,5.7330517E1,2.7182888E1,4.3331432E1,2.4659021E2,1.6339048E1,1.916851E1,2.273467E1,2.0083374E1,1.4373073E1,3.1137924E2,3.5706734E1,2.8172675E2,1.2589585E2,8.615207E1,1.3757811E2,1.7109996E2,2.639388E2,4.358928E1,2.0268887E1,2.1220044E2,2.0617476E2,3.32411E1,1.7159285E1,1.9879786E3,5.6766087E1],"tree_param":{"num_deleted":"0","num_feature":"52","num_nodes":"59","size_leaf_vector":"1"}},{"base_weights":[-1.5856128E-2,6.8263286E-1,-8.851639E-2,2.8326863E-1,1.3860878E0,2.2572106E-1,-1.9865169E-1,7.269837E-1,-3.472775E-1,3.6458051E0,7.412939E-1,-8.304366E-2,6.075698E-1,-5.5203927E-1,-9.191214E-2,9.26081E-2,5.029857E-1,-5.751956E-1,4.1021872E-2,2.4361882E-1,5.012909E-1,1.0209953E0,-3.7682377E-2,9.97328E-2,-6.8329984E-1,1.2334464E0,1.09448306E-1,-3.7155983E-1,-1.5517299E0,7.492542E-1,-1.4514829E-1,-1.044577E-2,2.75742E-2,-1.0737729E-2,-6.2215067E-2,-3.3281423E-2,6.7189135E-2,7.2900075E-3,4.9379904E-2,-1.2217861E-2,1.1795865E-2,3.1165423E-2,-3.133681E-2,2.2687346E-2,5.9443314E-2,5.196075E-2,-2.3707913E-3,3.0166933E-3,-2.4604028E-2,-2.918688E-2,-9.6312106E-2,8.398793E-2,1.4562305E-2,-5.2979197E-3,2.7264614E-2],"categories":[],"categories_nodes":[],"categories_segments":[],"categories_sizes":[],"default_left":[0,0,0,0,0,0,0,0,0,0,0,0,0,0,0,0,0,0,0,0,0,0,0,0,0,0,0,0,0,0,0,0,0,0,0,0,0,0,0,0,0,0,0,0,0,0,0,0,0,0,0,0,0,0,0],"id":4,"left_children":[1,3,5,7,9,11,13,15,17,19,21,23,25,27,29,-1,31,33,-1,-1,35,37,-1,39,41,43,45,47,49,51,53,-1,-1,-1,-1,-1,-1,-1,-1,-1,-1,-1,-1,-1,-1,-1,-1,-1,-1,-1,-1,-1,-1,-1,-1],"loss_changes":[2.3286014E2,1.20322815E2,1.439815E2,7.848146E1,2.2079303E2,1.2748376E2,1.1596048E2,8.3008965E1,4.6815037E1,4.688075E2,7.169659E1,6.5900116E1,1.5009694E2,1.2723633E2,1.0616285E2,0E0,5.4768787E1,3.190971E1,0E0,0E0,6.717568E1,5.2216553E1,0E0,6.878427E1,8.938283E1,7.2754486E1,8.360816E1,1.289399E2,9.6942535E1,7.294656E1,7.407423E1,0E0,0E0,0E0,0E0,0E0,0E0,0E0,0E0,0E0,0E0,0E0,0E0,0E0,0E0,0E0,0E0,0E0,0E0,0E0,0E0,0E0,0E0,0E0,0E0],"parents":[2147483647,0,0,1,1,2,2,3,3,4,4,5,5,6,6,7,7,8,8,9,9,10,10,11,11,12,12,13,13,14,14,16,16,17,17,20,20,21,21,23,23,24,24,25,25,26,26,27,27,28,28,29,29,30,30],"right_children":[2,4,6,8,10,12,14,16,18,20,22,24,26,28,30,-1,32,34,-1,-1,36,38,-1,40,42,44,46,48,50,52,54,-1,-1,-1,-1,-1,-1,-1,-1,-1,-1,-1,-1,-1,-1,-1,-1,-1,-1,-1,-1,-1,-1,-1,-1],"split_conditions":[-8.423434E-1,-7.373863E-2,-3.654235E-1,-1.321335E-2,-2.1451968E-1,-4.024668E-1,-1.0491265E-1,-6.637458E-1,-8.0416195E-2,8.3545476E-1,1E0,-2.3756026E-1,1.395421E-1,1E0,-9.757608E-2,9.26081E-2,-6.079261E-1,3.2905254E-1,4.1021872E-2,2.4361882E-1,8.182266E-1,2.5960857E-1,-3.7682377E-2,-2.1604166E0,-6.74016E-1,1.446158E-1,-6.110895E-1,-2.1353374E-1,-7.039712E-1,-2.970632E-1,1.0152467E0,-1.044577E-2,2.75742E-2,-1.0737729E-2,-6.2215067E-2,-3.3281423E-2,6.7189135E-2,7.2900075E-3,4.9379904E-2,-1.2217861E-2,1.1795865E-2,3.1165423E-2,-3.133681E-2,2.2687346E-2,5.9443314E-2,5.196075E-2,-2.3707913E-3,3.0166933E-3,-2.4604028E-2,-2.918688E-2,-9.6312106E-2,8.398793E-2,1.4562305E-2,-5.2979197E-3,2.7264614E-2],"split_indices":[40,6,39,15,1,5,31,39,1,5,48,6,16,44,38,0,7,0,0,0,39,0,0,5,29,5,29,39,0,13,7,0,0,0,0,0,0,0,0,0,0,0,0,0,0,0,0,0,0,0,0,0,0,0,0],"split_type":[0,0,0,0,0,0,0,0,0,0,0,0,0,0,0,0,0,0,0,0,0,0,0,0,0,0,0,0,0,0,0,0,0,0,0,0,0,0,0,0,0,0,0,0,0,0,0,0,0,0,0,0,0,0,0],"sum_hessian":[4.5861206E3,4.3027832E2,4.1558423E3,2.764323E2,1.5384601E2,1.0775284E3,3.078314E3,1.6226076E2,1.1417155E2,3.2018105E1,1.218279E2,5.963546E2,4.811739E2,7.11732E2,2.3665818E3,1.1772752E1,1.50488E2,1.0205227E2,1.2119281E1,1.1881501E1,2.0136602E1,1.0780874E2,1.4019161E1,4.5817575E2,1.3817882E2,2.1175519E2,2.6941867E2,6.053825E2,1.06349495E2,1.3908241E2,2.2274995E3,4.936523E1,1.0112278E2,9.141075E1,1.0641519E1,1.076803E1,9.368572E0,4.940613E1,5.8402607E1,1.674416E2,2.9073416E2,2.3213596E1,1.14965225E2,1.3189763E2,7.985756E1,2.644403E1,2.4297466E2,2.9549026E2,3.098922E2,8.1278946E1,2.507055E1,1.3579087E1,1.2550332E2,2.1647605E3,6.2738956E1],"tree_param":{"num_deleted":"0","num_feature":"52","num_nodes":"55","size_leaf_vector":"1"}},{"base_weights":[-1.1728916E-2,4.0736324E-1,-1.2032256E-1,-2.0412996E-1,6.8030995E-1,1.4578167E-1,-2.3230413E-1,1.0116541E0,-5.77581E-1,5.41128E-1,1.8814685E0,3.6801842E-1,-2.2192036E-1,-6.62218E-1,-1.3481782E-1,1.8607824E0,-1.0230244E-1,-1.2724036E0,-2.8330502E-1,7.9238325E-1,-5.1682717E-1,7.7037466E-1,3.1410747E0,8.0704086E-2,1.1486537E0,-3.3301985E-1,1.2450088E0,1.11532E0,-7.5522035E-1,1.995811E0,-1.7180115E-1,7.376289E-2,-6.60061E-3,-2.630789E-2,2.0384086E-2,-2.1642251E-2,-9.3571976E-2,1.8066058E-2,-1.7115656E-2,2.6475022E-2,-3.3136506E-2,2.625499E-3,-7.6885425E-2,1.2287265E-1,-3.6878288E-2,1.6172042E-1,4.4191305E-2,3.3362242E-4,5.3043183E-2,1.3081256E-1,2.7847365E-2,-1.3476469E-2,2.5512798E-2,7.0794865E-2,-0E0,-1.7403342E-2,7.428628E-2,-1.8084288E-3,-2.9669326E-2,2.8121792E-2,1.06855035E-1,-4.7359772E-2,-4.5036552E-3],"categories":[],"categories_nodes":[],"categories_segments":[],"categories_sizes":[],"default_left":[0,0,0,0,0,0,0,0,0,0,0,0,0,0,0,0,0,0,0,0,0,0,0,0,0,0,0,0,0,0,0,0,0,0,0,0,0,0,0,0,0,0,0,0,0,0,0,0,0,0,0,0,0,0,0,0,0,0,0,0,0,0,0],"id":5,"left_children":[1,3,5,7,9,11,13,15,17,19,21,23,25,27,29,31,33,35,37,39,41,43,45,47,49,51,53,55,57,59,61,-1,-1,-1,-1,-1,-1,-1,-1,-1,-1,-1,-1,-1,-1,-1,-1,-1,-1,-1,-1,-1,-1,-1,-1,-1,-1,-1,-1,-1,-1,-1,-1],"loss_changes":[2.096615E2,1.5859041E2,1.09149E2,1.3450404E2,1.07164154E2,8.8832886E1,1.0767815E2,6.661776E1,4.5219788E1,1.5795012E2,8.838838E1,1.5145358E2,6.739112E1,8.022069E1,1.6609459E2,5.0966843E1,2.0562977E1,6.2421066E1,4.180107E1,8.369559E1,1.4247705E2,2.6614978E2,9.812442E1,5.800002E1,1.1957721E2,5.3269356E1,4.0880306E1,5.941729E1,7.3285706E1,5.202745E1,6.2309357E1,0E0,0E0,0E0,0E0,0E0,0E0,0E0,0E0,0E0,0E0,0E0,0E0,0E0,0E0,0E0,0E0,0E0,0E0,0E0,0E0,0E0,0E0,0E0,0E0,0E0,0E0,0E0,0E0,0E0,0E0,0E0,0E0],"parents":[2147483647,0,0,1,1,2,2,3,3,4,4,5,5,6,6,7,7,8,8,9,9,10,10,11,11,12,12,13,13,14,14,15,15,16,16,17,17,18,18,19,19,20,20,21,21,22,22,23,23,24,24,25,25,26,26,27,27,28,28,29,29,30,30],"right_children":[2,4,6,8,10,12,14,16,18,20,22,24,26,28,30,32,34,36,38,40,42,44,46,48,50,52,54,56,58,60,62,-1,-1,-1,-1,-1,-1,-1,-1,-1,-1,-1,-1,-1,-1,-1,-1,-1,-1,-1,-1,-1,-1,-1,-1,-1,-1,-1,-1,-1,-1,-1,-1],"split_conditions":[-4.948628E-1,-6.079261E-1,-2.930284E-1,-7.473388E-1,1E0,2.2823457E-1,-1.0491265E-1,4.113743E-2,-5.7438165E-1,7.761977E-1,2.6018894E-1,-1.9118673E-1,5.9290063E-1,-8.744979E-1,-1.3563377E-1,1.09415546E-1,1.1080396E-1,-7.456164E-1,-6.125917E-1,2.7978594E0,-5.008785E-2,-3.86334E-1,6.6822276E-2,1E0,-5.5955374E-1,8.358081E-1,3.9488387E-1,-2.3756026E-1,-8.224102E-1,9.7987235E-2,-8.8411313E-1,7.376289E-2,-6.60061E-3,-2.630789E-2,2.0384086E-2,-2.1642251E-2,-9.3571976E-2,1.8066058E-2,-1.7115656E-2,2.6475022E-2,-3.3136506E-2,2.625499E-3,-7.6885425E-2,1.2287265E-1,-3.6878288E-2,1.6172042E-1,4.4191305E-2,3.3362242E-4,5.3043183E-2,1.3081256E-1,2.7847365E-2,-1.3476469E-2,2.5512798E-2,7.0794865E-2,-0E0,-1.7403342E-2,7.428628E-2,-1.8084288E-3,-2.9669326E-2,2.8121792E-2,1.06855035E-1,-4.7359772E-2,-4.5036552E-3],"split_indices":[40,7,39,29,42,27,31,14,41,37,7,5,5,27,38,15,27,6,37,2,30,39,29,48,0,27,14,6,7,0,1,0,0,0,0,0,0,0,0,0,0,0,0,0,0,0,0,0,0,0,0,0,0,0,0,0,0,0,0,0,0,0,0],"split_type":[0,0,0,0,0,0,0,0,0,0,0,0,0,0,0,0,0,0,0,0,0,0,0,0,0,0,0,0,0,0,0,0,0,0,0,0,0,0,0,0,0,0,0,0,0,0,0,0,0,0,0,0,0,0,0,0,0,0,0,0,0,0,0],"sum_hessian":[4.6039644E3,9.459488E2,3.6580156E3,2.9185843E2,6.540904E2,1.0827245E3,2.5752913E3,6.765419E1,2.2420422E2,5.8891815E2,6.517223E1,6.751876E2,4.0753683E2,4.7350415E2,2.101787E3,3.773152E1,2.9922668E1,6.452507E1,1.5967915E2,4.764552E2,1.1246292E2,3.6424397E1,2.874784E1,4.953398E2,1.7984778E2,3.8040848E2,2.7128351E1,2.2342411E1,4.5116174E2,3.39606E1,2.0678267E3,2.9101242E1,8.630278E0,1.5036238E1,1.4886431E1,5.192241E1,1.2602661E1,3.8399986E1,1.21279175E2,4.559685E2,2.0486689E1,8.822125E1,2.424167E1,1.292835E1,2.3496046E1,1.0288599E1,1.8459242E1,4.7776974E2,1.7570066E1,9.0787735E0,1.7076901E2,3.476815E2,3.272701E1,1.3448701E1,1.367965E1,1.0393905E1,1.1948507E1,1.1440805E2,3.367537E2,2.224852E1,1.1712083E1,2.906125E1,2.0387653E3],"tree_param":{"num_deleted":"0","num_feature":"52","num_nodes":"63","size_leaf_vector":"1"}},{"base_weights":[-1.04880985E-2,4.0371802E-1,-1.20170385E-1,5.5190515E-2,8.9609057E-1,-7.0876986E-2,-5.806985E-1,-9.374427E-3,9.122473E-2,1.0510194E0,-1.3417947E0,1.11594826E-1,-2.2589432E-1,2.3708086E-1,-8.0669427E-1,2.1174622E0,-9.623736E-2,1.6413636E0,4.402859E-1,-7.171724E-2,-1.2913238E-2,3.7495625E-1,-2.4160205E-1,-3.264946E-1,2.3105617E-1,-5.7438904E-1,1.8506242E0,-1.4413049E0,-2.8442395E-1,1.2445155E-1,8.606458E-3,6.8203715E-4,-3.453134E-2,-5.5853628E-2,5.6805287E-2,5.4594977E-3,5.294032E-2,7.6961187E-3,4.2134695E-2,-4.6295468E-2,-4.669026E-3,5.143583E-3,-1.41627295E-2,2.5352689E-2,-1.6961027E-2,1.5362877E-2,-4.067621E-2,1.06705055E-1,-8.54636E-3,-2.6519747E-2,-1.1035144E-1,-1.7347425E-3,-3.8830683E-2],"categories":[],"categories_nodes":[],"categories_segments":[],"categories_sizes":[],"default_left":[0,0,0,0,0,0,0,0,0,0,0,0,0,0,0,0,0,0,0,0,0,0,0,0,0,0,0,0,0,0,0,0,0,0,0,0,0,0,0,0,0,0,0,0,0,0,0,0,0,0,0,0,0],"id":6,"left_children":[1,3,5,7,9,11,13,15,-1,17,19,21,23,25,27,29,31,33,35,-1,-1,37,39,41,43,45,47,49,51,-1,-1,-1,-1,-1,-1,-1,-1,-1,-1,-1,-1,-1,-1,-1,-1,-1,-1,-1,-1,-1,-1,-1,-1],"loss_changes":[2.0870525E2,1.647397E2,8.226744E1,1.0966547E2,1.408292E2,9.298519E1,6.529742E1,1.0261319E2,0E0,1.3285092E2,2.2781708E1,1.4061832E2,8.186699E1,1.0355542E2,9.009842E1,7.774504E1,6.749531E1,1.7408194E2,6.278506E1,0E0,0E0,1.045052E2,7.142621E1,1.0590633E2,1.5822427E2,4.6437668E1,9.8919846E1,1.4673764E2,3.4756805E1,0E0,0E0,0E0,0E0,0E0,0E0,0E0,0E0,0E0,0E0,0E0,0E0,0E0,0E0,0E0,0E0,0E0,0E0,0E0,0E0,0E0,0E0,0E0,0E0],"parents":[2147483647,0,0,1,1,2,2,3,3,4,4,5,5,6,6,7,7,9,9,10,10,11,11,12,12,13,13,14,14,15,15,16,16,17,17,18,18,21,21,22,22,23,23,24,24,25,25,26,26,27,27,28,28],"right_children":[2,4,6,8,10,12,14,16,-1,18,20,22,24,26,28,30,32,34,36,-1,-1,38,40,42,44,46,48,50,52,-1,-1,-1,-1,-1,-1,-1,-1,-1,-1,-1,-1,-1,-1,-1,-1,-1,-1,-1,-1,-1,-1,-1,-1],"split_conditions":[-4.948628E-1,-1.3455895E-1,1E0,1.8231333E0,6.3111204E-1,1.9483529E-1,-3.472589E-1,-8.981948E-1,9.122473E-2,2.146171E-1,-1.7158611E-1,1.5143114E-1,1E0,-8.5737145E-1,-8.090418E-2,4.820373E-1,6.791389E-1,-9.282454E-1,-2.3677148E-1,-7.171724E-2,-1.2913238E-2,1E0,-7.036276E-1,-1.1245182E0,1.425719E0,-1.9232265E0,3.2799557E-1,-7.1580374E-1,7.7173036E-1,1.2445155E-1,8.606458E-3,6.8203715E-4,-3.453134E-2,-5.5853628E-2,5.6805287E-2,5.4594977E-3,5.294032E-2,7.6961187E-3,4.2134695E-2,-4.6295468E-2,-4.669026E-3,5.143583E-3,-1.41627295E-2,2.5352689E-2,-1.6961027E-2,1.5362877E-2,-4.067621E-2,1.06705055E-1,-8.54636E-3,-2.6519747E-2,-1.1035144E-1,-1.7347425E-3,-3.8830683E-2],"split_indices":[40,6,44,27,6,29,29,39,0,1,15,27,50,5,31,16,16,0,41,0,0,49,39,27,28,5,27,0,5,0,0,0,0,0,0,0,0,0,0,0,0,0,0,0,0,0,0,0,0,0,0,0,0],"split_type":[0,0,0,0,0,0,0,0,0,0,0,0,0,0,0,0,0,0,0,0,0,0,0,0,0,0,0,0,0,0,0,0,0,0,0,0,0,0,0,0,0,0,0,0,0,0,0,0,0,0,0,0,0],"sum_hessian":[4.591E3,9.596764E2,3.6313237E3,5.634599E2,3.962165E2,3.282697E3,3.4862686E2,5.534188E2,1.0041061E1,3.7163806E2,2.4578434E1,1.5074907E3,1.7752062E3,7.5271034E1,2.7335583E2,1.9790575E1,5.3362823E2,1.8709077E2,1.8454729E2,9.816269E0,1.4762165E1,8.638234E2,6.4366736E2,1.4557279E3,3.1947824E2,5.0858025E1,2.4413008E1,1.2164395E2,1.5171188E2,8.129638E0,1.1660937E1,4.811289E2,5.249934E1,1.1651517E1,1.7543925E2,1.5645828E2,2.8089E1,7.7712915E2,8.669429E1,3.7634922E1,6.060324E2,3.289551E2,1.1267728E3,1.8046825E2,1.3901E2,2.145835E1,2.9399675E1,1.2882632E1,1.15303755E1,9.968865E1,2.1955297E1,1.2579885E2,2.5913029E1],"tree_param":{"num_deleted":"0","num_feature":"52","num_nodes":"53","size_leaf_vector":"1"}},{"base_weights":[-9.021242E-3,4.018505E-1,-1.1665781E-1,4.633663E-2,8.212486E-1,1.028024E0,-1.3578646E-1,7.26268E-1,-2.3170389E-1,2.0402741E0,6.2216216E-1,4.8507157E-1,8.537753E-2,1.12030115E-2,-2.849388E-1,1.1998192E0,-2.3903674E-2,-3.934718E-1,1.7843102E0,-2.1342784E-2,2.718174E0,-1.3341928E-1,9.598076E-1,5.0780647E-2,-7.7139676E-2,9.384995E-2,-6.70861E-1,-1.2190217E0,-2.4214117E-1,4.4194918E-2,-1.0486899E-2,3.7618794E-2,-1.4122032E-2,-8.277258E-3,-7.099284E-2,7.098722E-4,8.794293E-2,1.23841636E-1,3.645408E-2,2.8447058E-2,-2.634904E-2,1.6320777E-1,2.2141812E-2,3.8254514E-2,-2.0146035E-2,1.48595385E-2,-2.8756487E-3,-2.9516558E-3,-3.3055846E-2,-8.799241E-3,-5.37127E-2,4.9952917E-2,-7.620407E-3],"categories":[],"categories_nodes":[],"categories_segments":[],"categories_sizes":[],"default_left":[0,0,0,0,0,0,0,0,0,0,0,0,0,0,0,0,0,0,0,0,0,0,0,0,0,0,0,0,0,0,0,0,0,0,0,0,0,0,0,0,0,0,0,0,0,0,0,0,0,0,0,0,0],"id":7,"left_children":[1,3,5,7,9,11,13,15,17,19,21,23,-1,25,27,29,31,33,35,-1,37,39,41,-1,43,45,47,49,51,-1,-1,-1,-1,-1,-1,-1,-1,-1,-1,-1,-1,-1,-1,-1,-1,-1,-1,-1,-1,-1,-1,-1,-1],"loss_changes":[2.0470824E2,1.4300461E2,8.044229E1,9.91891E1,1.0381232E2,5.61591E1,7.922429E1,5.4398117E1,1.2246682E2,1.1770218E2,9.777449E1,3.383925E1,0E0,1.025963E2,7.0794495E1,4.0882645E1,3.570342E1,7.845645E1,5.5633408E1,0E0,9.329306E1,9.787762E1,2.531926E2,0E0,2.9902609E1,1.239495E2,4.8067696E1,3.9712517E1,3.944548E1,0E0,0E0,0E0,0E0,0E0,0E0,0E0,0E0,0E0,0E0,0E0,0E0,0E0,0E0,0E0,0E0,0E0,0E0,0E0,0E0,0E0,0E0,0E0,0E0],"parents":[2147483647,0,0,1,1,2,2,3,3,4,4,5,5,6,6,7,7,8,8,9,9,10,10,11,11,13,13,14,14,15,15,16,16,17,17,18,18,20,20,21,21,22,22,24,24,25,25,26,26,27,27,28,28],"right_children":[2,4,6,8,10,12,14,16,18,20,22,24,-1,26,28,30,32,34,36,-1,38,40,42,-1,44,46,48,50,52,-1,-1,-1,-1,-1,-1,-1,-1,-1,-1,-1,-1,-1,-1,-1,-1,-1,-1,-1,-1,-1,-1,-1,-1],"split_conditions":[-4.948628E-1,-2.0850495E-1,-2.8644829E0,-5.613351E-1,-4.1060835E-1,-2.3086734E0,2.8611291E-2,5.9787974E-2,1.3529848E0,-8.571907E-1,5.598164E-2,-4.512895E-1,8.537753E-2,1E0,-1.7188061E0,5.9109527E-1,-1.9074671E0,1.0741198E0,2.0753369E-1,-2.1342784E-2,1.539461E-1,2.12068E-2,-3.8222516E-1,5.0780647E-2,5.252829E-3,-8.463748E-2,-6.4942294E-1,1.4799972E-3,-1.8981849E0,4.4194918E-2,-1.0486899E-2,3.7618794E-2,-1.4122032E-2,-8.277258E-3,-7.099284E-2,7.098722E-4,8.794293E-2,1.23841636E-1,3.645408E-2,2.8447058E-2,-2.634904E-2,1.6320777E-1,2.2141812E-2,3.8254514E-2,-2.0146035E-2,1.48595385E-2,-2.8756487E-3,-2.9516558E-3,-3.3055846E-2,-8.799241E-3,-5.37127E-2,4.9952917E-2,-7.620407E-3],"split_indices":[40,6,7,31,39,6,24,15,27,2,31,15,0,44,6,16,7,2,2,0,33,13,29,0,41,29,27,27,2,0,0,0,0,0,0,0,0,0,0,0,0,0,0,0,0,0,0,0,0,0,0,0,0],"split_type":[0,0,0,0,0,0,0,0,0,0,0,0,0,0,0,0,0,0,0,0,0,0,0,0,0,0,0,0,0,0,0,0,0,0,0,0,0,0,0,0,0,0,0,0,0,0,0,0,0,0,0,0,0],"sum_hessian":[4.625978E3,9.587811E2,3.667197E3,5.20372E2,4.3840918E2,5.8369267E1,3.6088276E3,1.5030508E2,3.700669E2,5.8809834E1,3.7959933E2,4.698106E1,1.1388206E1,1.8178486E3,1.7909791E3,9.156919E1,5.8735886E1,3.4415988E2,2.5907032E1,1.154657E1,4.7263264E1,1.17430725E2,2.621686E2,1.3759714E1,3.3221348E1,1.6231826E3,1.9466597E2,7.5850845E1,1.7151283E3,7.80304E1,1.3538788E1,1.4165259E1,4.457063E1,3.2705273E2,1.7107141E1,1.10944395E1,1.48125925E1,2.2516403E1,2.474686E1,4.75574E1,6.987332E1,1.0101256E1,2.5206735E2,9.341564E0,2.3879782E1,5.201769E2,1.1030057E3,8.486518E1,1.0980078E2,3.0238632E1,4.5612213E1,8.783356E0,1.7063448E3],"tree_param":{"num_deleted":"0","num_feature":"52","num_nodes":"53","size_leaf_vector":"1"}},{"base_weights":[-8.737709E-3,3.7318695E-1,-1.10244825E-1,3.6530007E-2,7.703557E-1,5.3996872E-2,-2.2567795E-1,-3.1223541E-2,1.0508991E-1,9.13762E-1,-6.20275E-1,-3.690836E-1,1.8370405E-1,-3.22419E-1,-8.995049E-3,7.092516E-1,-2.8189772E-1,1.4201574E0,3.2865092E-1,-5.163575E-2,-1.5670883E-3,7.6705074E-1,-4.9206218E-1,-1.2144842E-1,3.8229007E-1,-6.8287945E-1,-1.9092563E-1,-6.839072E-2,2.5519958E-2,3.7580155E-2,-1.6241713E-3,-1.5607819E-2,1.0213487E-2,-3.342393E-2,4.9839247E-2,4.457813E-3,6.2121984E-2,2.290447E-2,-4.4674322E-2,3.9097153E-2,-2.78767E-3,-2.826157E-2,-7.858767E-3,-6.355916E-3,6.7267716E-2,3.9132394E-2,4.512E-3,-8.854415E-2,-1.8445697E-2,1.4801378E-2,-8.122219E-3,3.0789359E-2,-1.4352078E-3],"categories":[],"categories_nodes":[],"categories_segments":[],"categories_sizes":[],"default_left":[0,0,0,0,0,0,0,0,0,0,0,0,0,0,0,0,0,0,0,0,0,0,0,0,0,0,0,0,0,0,0,0,0,0,0,0,0,0,0,0,0,0,0,0,0,0,0,0,0,0,0,0,0],"id":8,"left_children":[1,3,5,7,9,11,13,15,-1,17,19,21,23,25,27,29,31,33,35,-1,37,39,41,43,45,47,49,-1,51,-1,-1,-1,-1,-1,-1,-1,-1,-1,-1,-1,-1,-1,-1,-1,-1,-1,-1,-1,-1,-1,-1,-1,-1],"loss_changes":[1.7886482E2,1.2929779E2,6.918897E1,1.245992E2,8.97384E1,8.273613E1,4.483793E1,9.654904E1,0E0,1.1825476E2,2.864508E1,5.0111313E1,7.009055E1,6.973547E1,5.2605103E1,5.492331E1,5.8090942E1,1.3550174E2,5.852556E1,0E0,3.584468E1,1.6698456E1,3.2449707E1,9.803007E1,1.4901709E2,5.6538986E1,5.96431E1,0E0,4.8450916E1,0E0,0E0,0E0,0E0,0E0,0E0,0E0,0E0,0E0,0E0,0E0,0E0,0E0,0E0,0E0,0E0,0E0,0E0,0E0,0E0,0E0,0E0,0E0,0E0],"parents":[2147483647,0,0,1,1,2,2,3,3,4,4,5,5,6,6,7,7,9,9,10,10,11,11,12,12,13,13,14,14,15,15,16,16,17,17,18,18,20,20,21,21,22,22,23,23,24,24,25,25,26,26,28,28],"right_children":[2,4,6,8,10,12,14,16,-1,18,20,22,24,26,28,30,32,34,36,-1,38,40,42,44,46,48,50,-1,52,-1,-1,-1,-1,-1,-1,-1,-1,-1,-1,-1,-1,-1,-1,-1,-1,-1,-1,-1,-1,-1,-1,-1,-1],"split_conditions":[-4.948628E-1,-2.0850495E-1,-1.5211083E-1,1.8231333E0,6.043035E-1,-8.9369273E-1,5.8872753E-1,-5.822186E-1,1.0508991E-1,2.146171E-1,4.9214285E-2,-1.4454426E0,-1.9216585E-1,6.8743774E-3,-9.618153E-1,3.3521004E-2,2.3639028E-1,-8.762647E-1,8.885684E-1,-5.163575E-2,4.0605816E-1,4.3256238E-2,5.8127552E-2,6.4953536E-1,-1.08200155E-1,-7.83011E-1,-1.3871353E0,-6.839072E-2,-1.3525769E0,3.7580155E-2,-1.6241713E-3,-1.5607819E-2,1.0213487E-2,-3.342393E-2,4.9839247E-2,4.457813E-3,6.2121984E-2,2.290447E-2,-4.4674322E-2,3.9097153E-2,-2.78767E-3,-2.826157E-2,-7.858767E-3,-6.355916E-3,6.7267716E-2,3.9132394E-2,4.512E-3,-8.854415E-2,-1.8445697E-2,1.4801378E-2,-8.122219E-3,3.0789359E-2,-1.4352078E-3],"split_indices":[40,6,14,27,6,15,37,39,0,1,0,27,5,15,31,15,5,0,5,0,0,32,2,27,29,39,7,0,27,0,0,0,0,0,0,0,0,0,0,0,0,0,0,0,0,0,0,0,0,0,0,0,0],"split_type":[0,0,0,0,0,0,0,0,0,0,0,0,0,0,0,0,0,0,0,0,0,0,0,0,0,0,0,0,0,0,0,0,0,0,0,0,0,0,0,0,0,0,0,0,0,0,0,0,0,0,0,0,0],"sum_hessian":[4.6109487E3,9.666323E2,3.6443164E3,5.2462537E2,4.4200696E2,1.5038812E3,2.1404353E3,5.164553E2,8.170045E0,4.0143896E2,4.0568016E1,3.5164572E2,1.1522355E3,1.4784584E3,6.619769E2,1.2949094E2,3.8696436E2,2.1348134E2,1.8795763E2,1.3197524E1,2.7370491E1,3.316362E1,3.1848212E2,4.541486E2,6.9808685E2,3.925261E2,1.0859323E3,8.050365E0,6.539266E2,7.504804E1,5.444289E1,2.80269E2,1.06695366E2,1.7847708E1,1.9563362E2,1.7242194E2,1.553569E1,1.8628878E1,8.741614E0,1.9935589E1,1.3228031E1,1.0536768E2,2.1311443E2,4.3925186E2,1.4896725E1,1.3824309E2,5.5984375E2,8.8734455E0,3.8365265E2,1.12085236E2,9.7384705E2,4.307238E1,6.108542E2],"tree_param":{"num_deleted":"0","num_feature":"52","num_nodes":"53","size_leaf_vector":"1"}},{"base_weights":[-1.623086E-2,6.598043E-1,-7.610079E-2,-2.1489474E-1,9.093531E-1,1.2440941E-1,-1.8521574E-1,2.8588632E-1,-6.3553445E-2,1.3101215E0,2.105469E-1,5.013115E-1,-1.3170339E-1,-2.6142895E-1,2.6693627E-1,6.5003E-1,-3.4689724E-2,5.9290034E-1,2.4291184E0,-7.314353E-2,6.066706E-1,1.9121665E-1,1.0425699E0,-2.997292E-1,5.8629316E-1,1.5272479E-1,-3.5491037E-1,7.0127445E-1,-4.7879404E-1,6.5618925E-2,5.912879E-3,3.392966E-2,-6.115119E-3,9.410943E-2,2.183834E-2,9.214609E-3,8.900539E-2,3.1546894E-3,6.331932E-2,5.9131954E-2,1.8506799E-2,-1.0245599E-2,6.265593E-2,8.691417E-3,7.008949E-2,-5.3598132E-2,7.211436E-3,-6.298404E-2,-1.0117003E-2,1.004775E-2,5.143348E-2,-2.1024719E-2,2.3477245E-2],"categories":[],"categories_nodes":[],"categories_segments":[],"categories_sizes":[],"default_left":[0,0,0,0,0,0,0,0,0,0,0,0,0,0,0,0,0,0,0,0,0,0,0,0,0,0,0,0,0,0,0,0,0,0,0,0,0,0,0,0,0,0,0,0,0,0,0,0,0,0,0,0,0],"id":9,"left_children":[1,3,5,7,9,11,13,15,-1,17,19,21,23,25,27,29,-1,31,33,-1,35,37,39,41,43,45,47,49,51,-1,-1,-1,-1,-1,-1,-1,-1,-1,-1,-1,-1,-1,-1,-1,-1,-1,-1,-1,-1,-1,-1,-1,-1],"loss_changes":[1.8830618E2,8.314317E1,9.362082E1,8.3033806E1,8.176874E1,1.457344E2,9.562093E1,3.7812714E1,0E0,1.4653967E2,1.1810278E2,1.01854935E2,1.0874029E2,9.200336E1,1.3036774E2,3.8171722E1,0E0,5.066504E1,8.167499E1,0E0,6.640303E1,6.369145E1,8.469672E1,7.39353E1,8.6832306E1,7.4991974E1,5.7819366E1,9.269658E1,4.2627228E1,0E0,0E0,0E0,0E0,0E0,0E0,0E0,0E0,0E0,0E0,0E0,0E0,0E0,0E0,0E0,0E0,0E0,0E0,0E0,0E0,0E0,0E0,0E0,0E0],"parents":[2147483647,0,0,1,1,2,2,3,3,4,4,5,5,6,6,7,7,9,9,10,10,11,11,12,12,13,13,14,14,15,15,17,17,18,18,20,20,21,21,22,22,23,23,24,24,25,25,26,26,27,27,28,28],"right_children":[2,4,6,8,10,12,14,16,-1,18,20,22,24,26,28,30,-1,32,34,-1,36,38,40,42,44,46,48,50,52,-1,-1,-1,-1,-1,-1,-1,-1,-1,-1,-1,-1,-1,-1,-1,-1,-1,-1,-1,-1,-1,-1,-1,-1],"split_conditions":[-8.986205E-1,-1.080142E0,-1.4313626E-1,1E0,-5.0550263E-2,-7.400316E-2,1E0,3.4649077E-1,-6.3553445E-2,-1.254218E-1,-6.6271745E-2,-2.0146151E-1,3.3614326E-1,-1.1245182E0,1.425719E0,-4.4031557E-2,-3.4689724E-2,4.546123E-1,3.1766278E-1,-7.314353E-2,7.1269935E-1,5.796462E-1,-3.515246E-1,5.598164E-2,1E0,-8.5737145E-1,-9.7000563E-1,3.6710334E-1,2.767257E0,6.5618925E-2,5.912879E-3,3.392966E-2,-6.115119E-3,9.410943E-2,2.183834E-2,9.214609E-3,8.900539E-2,3.1546894E-3,6.331932E-2,5.9131954E-2,1.8506799E-2,-1.0245599E-2,6.265593E-2,8.691417E-3,7.008949E-2,-5.3598132E-2,7.211436E-3,-6.298404E-2,-1.0117003E-2,1.004775E-2,5.143348E-2,-2.1024719E-2,2.3477245E-2],"split_indices":[40,6,38,44,38,12,50,14,0,6,5,5,5,27,28,27,0,16,6,0,28,27,13,31,42,5,41,6,31,0,0,0,0,0,0,0,0,0,0,0,0,0,0,0,0,0,0,0,0,0,0,0,0],"split_type":[0,0,0,0,0,0,0,0,0,0,0,0,0,0,0,0,0,0,0,0,0,0,0,0,0,0,0,0,0,0,0,0,0,0,0,0,0,0,0,0,0,0,0,0,0,0,0,0,0,0,0,0,0],"sum_hessian":[4.6509053E3,3.7647452E2,4.274431E3,8.344964E1,2.9302487E2,1.5056068E3,2.7688242E3,6.733097E1,1.6118666E1,1.8493056E2,1.0809431E2,6.086979E2,8.96909E2,2.37054E3,3.9828418E2,5.4745518E1,1.2585455E1,1.1467075E2,7.025981E1,1.2655964E1,9.543834E1,3.889429E2,2.1975496E2,7.279885E2,1.6892049E2,4.3590955E2,1.9346304E3,2.5193579E2,1.4634837E2,1.06157E1,4.4129818E1,6.809427E1,4.6576485E1,4.8339878E1,2.1919931E1,8.6771645E1,8.666694E0,3.743712E2,1.4571712E1,6.664868E1,1.5310628E2,7.172358E2,1.0752748E1,1.4653273E2,2.2387758E1,1.7075788E1,4.1883377E2,1.6930098E1,1.9177003E3,1.8713062E2,6.480519E1,1.25334045E2,2.1014324E1],"tree_param":{"num_deleted":"0","num_feature":"52","num_nodes":"53","size_leaf_vector":"1"}},{"base_weights":[-9.525384E-3,5.5736935E-1,-7.770976E-2,6.460164E-1,-1.747379E0,2.2487554E-1,-1.4584668E-1,9.4144833E-1,8.43819E-2,-9.0902634E-2,-5.2382657E-3,6.2936765E-1,-5.2056417E-2,-9.715402E-2,-6.231823E-1,2.261469E0,7.3438644E-1,-1.6655861E-1,2.106869E0,1.995141E-1,1.3281962E0,-1.2022951E0,4.980115E-2,-1.9681562E0,-8.3469294E-2,-1.3135594E0,-9.040856E-2,1.00374304E-1,1.4981026E-2,3.8500906E-3,3.7442293E-2,-4.2252887E-2,6.582317E-3,9.817195E-2,1.4298696E-2,1.7926613E-2,-1.5484265E-2,5.0461672E-2,3.1365512E-4,-5.7580336E-3,-7.094591E-2,3.1348204E-3,-5.9129123E-2,-1.09439544E-1,-3.6171302E-3,2.2645E-3,-5.8697863E-3,-2.3869693E-2,-8.783853E-2,-1.4283857E-2,1.0900936E-2],"categories":[],"categories_nodes":[],"categories_segments":[],"categories_sizes":[],"default_left":[0,0,0,0,0,0,0,0,0,0,0,0,0,0,0,0,0,0,0,0,0,0,0,0,0,0,0,0,0,0,0,0,0,0,0,0,0,0,0,0,0,0,0,0,0,0,0,0,0,0,0],"id":10,"left_children":[1,3,5,7,9,11,13,15,17,-1,-1,19,21,23,25,27,29,31,33,35,37,39,41,43,45,47,49,-1,-1,-1,-1,-1,-1,-1,-1,-1,-1,-1,-1,-1,-1,-1,-1,-1,-1,-1,-1,-1,-1,-1,-1],"loss_changes":[1.8009447E2,1.0422998E2,8.584372E1,7.981142E1,3.6595825E1,8.588155E1,7.871842E1,8.250833E1,8.6856995E1,0E0,0E0,9.26986E1,5.3739967E1,7.8285645E1,1.1490591E2,7.572583E1,8.54628E1,7.37627E1,3.201935E1,5.6271305E1,5.467424E1,4.2405766E1,4.650056E1,6.7315674E1,5.473252E1,1.0862027E2,3.1774784E1,0E0,0E0,0E0,0E0,0E0,0E0,0E0,0E0,0E0,0E0,0E0,0E0,0E0,0E0,0E0,0E0,0E0,0E0,0E0,0E0,0E0,0E0,0E0,0E0],"parents":[2147483647,0,0,1,1,2,2,3,3,4,4,5,5,6,6,7,7,8,8,11,11,12,12,13,13,14,14,15,15,16,16,17,17,18,18,19,19,20,20,21,21,22,22,23,23,24,24,25,25,26,26],"right_children":[2,4,6,8,10,12,14,16,18,-1,-1,20,22,24,26,28,30,32,34,36,38,40,42,44,46,48,50,-1,-1,-1,-1,-1,-1,-1,-1,-1,-1,-1,-1,-1,-1,-1,-1,-1,-1,-1,-1,-1,-1,-1,-1],"split_conditions":[-8.013546E-1,1.1083554E0,-4.0469623E-1,6.8743774E-3,5.464299E-1,-8.87259E-2,1E0,-6.3773847E-1,9.41534E-1,-9.0902634E-2,-5.2382657E-3,-5.236442E-1,-1.8340569E0,-1.0310386E0,-1.0491265E-1,-6.9091094E-1,6.795243E-2,-8.571907E-1,-2.1239574E-1,-6.722616E-3,2.6134672E-2,3.461355E-1,3.3800825E-1,3.3547404E-1,-1.5211083E-1,-7.1580374E-1,5.9465265E-1,1.00374304E-1,1.4981026E-2,3.8500906E-3,3.7442293E-2,-4.2252887E-2,6.582317E-3,9.817195E-2,1.4298696E-2,1.7926613E-2,-1.5484265E-2,5.0461672E-2,3.1365512E-4,-5.7580336E-3,-7.094591E-2,3.1348204E-3,-5.9129123E-2,-1.09439544E-1,-3.6171302E-3,2.2645E-3,-5.8697863E-3,-2.3869693E-2,-8.783853E-2,-1.4283857E-2,1.0900936E-2],"split_indices":[40,1,29,15,38,12,44,31,27,0,0,5,0,41,31,29,31,2,28,27,41,16,2,37,14,0,30,0,0,0,0,0,0,0,0,0,0,0,0,0,0,0,0,0,0,0,0,0,0,0,0],"split_type":[0,0,0,0,0,0,0,0,0,0,0,0,0,0,0,0,0,0,0,0,0,0,0,0,0,0,0,0,0,0,0,0,0,0,0,0,0,0,0,0,0,0,0,0,0,0,0,0,0,0,0],"sum_hessian":[4.657459E3,4.9818604E2,4.159273E3,4.812038E2,1.698226E1,7.630689E2,3.396204E3,3.1421255E2,1.6699124E2,8.262905E0,8.719354E0,3.0937164E2,4.5369724E2,3.0843933E3,3.1181064E2,3.978346E1,2.744291E2,1.5010352E2,1.688772E1,1.9331789E2,1.1605377E2,3.5310085E1,4.1838715E2,2.0215641E1,3.0641777E3,1.3437668E2,1.7743396E2,2.3445078E1,1.6338379E1,1.2722197E2,1.4720712E2,3.445695E1,1.1564657E2,8.6011305E0,8.28659E0,1.2461692E2,6.870096E1,9.0930916E1,2.5122852E1,2.023048E1,1.5079604E1,4.0930472E2,9.082416E0,9.511024E0,1.0704617E1,1.267392E3,1.7967858E3,1.0409288E2,3.0283804E1,9.609376E1,8.13402E1],"tree_param":{"num_deleted":"0","num_feature":"52","num_nodes":"51","size_leaf_vector":"1"}},{"base_weights":[-5.538016E-3,3.560158E-1,-1.0168717E-1,9.686177E-3,6.839104E-1,1.0353975E0,-1.20475866E-1,7.805675E-1,-2.4814229E-1,-4.622994E-1,8.3173877E-1,-2.5142197E-2,1.4230007E0,2.686674E-2,-2.3395106E-1,1.5822669E0,6.381549E-2,-1.506024E-1,-2.0507226E0,2.3855418E-1,-7.171504E-2,1.8992263E0,6.2327033E-1,2.1556318E0,6.8246806E-1,4.021342E-1,-1.2959969E-1,-1.7832223E0,-2.0505999E-1,2.4163373E-2,7.837925E-2,2.644301E-2,-1.7304935E-2,-6.62948E-2,-1.9281189E-3,-7.982605E-2,-3.0366404E-2,2.9195748E-2,-5.7099883E-2,-3.7178297E-2,7.224342E-2,7.506159E-2,1.5625559E-2,9.8273374E-2,2.3111235E-2,-3.1090295E-4,5.4125495E-2,-1.824296E-3,2.6610138E-2,-3.7494842E-2,-3.913111E-4,-1.1945458E-2,-7.0984766E-2,-6.579179E-2,-5.794282E-3],"categories":[],"categories_nodes":[],"categories_segments":[],"categories_sizes":[],"default_left":[0,0,0,0,0,0,0,0,0,0,0,0,0,0,0,0,0,0,0,0,0,0,0,0,0,0,0,0,0,0,0,0,0,0,0,0,0,0,0,0,0,0,0,0,0,0,0,0,0,0,0,0,0,0,0],"id":11,"left_children":[1,3,5,7,9,11,13,15,17,19,21,-1,23,25,27,29,31,33,35,37,-1,39,41,43,45,47,49,51,53,-1,-1,-1,-1,-1,-1,-1,-1,-1,-1,-1,-1,-1,-1,-1,-1,-1,-1,-1,-1,-1,-1,-1,-1,-1,-1],"loss_changes":[1.6115552E2,1.1042321E2,7.833438E1,9.507608E1,8.5538025E1,4.5770775E1,6.0343643E1,6.839233E1,6.187397E1,8.026541E1,9.5848724E1,0E0,2.3725807E1,9.2335945E1,9.0093735E1,4.0253036E1,3.5410027E1,6.002813E1,5.353821E0,7.346298E1,0E0,1.20150635E2,6.880652E1,3.1652138E1,2.2178385E1,1.04158295E2,1.4452344E2,2.7374352E1,4.6132324E1,0E0,0E0,0E0,0E0,0E0,0E0,0E0,0E0,0E0,0E0,0E0,0E0,0E0,0E0,0E0,0E0,0E0,0E0,0E0,0E0,0E0,0E0,0E0,0E0,0E0,0E0],"parents":[2147483647,0,0,1,1,2,2,3,3,4,4,5,5,6,6,7,7,8,8,9,9,10,10,12,12,13,13,14,14,15,15,16,16,17,17,18,18,19,19,21,21,22,22,23,23,24,24,25,25,26,26,27,27,28,28],"right_children":[2,4,6,8,10,12,14,16,18,20,22,-1,24,26,28,30,32,34,36,38,-1,40,42,44,46,48,50,52,54,-1,-1,-1,-1,-1,-1,-1,-1,-1,-1,-1,-1,-1,-1,-1,-1,-1,-1,-1,-1,-1,-1,-1,-1,-1,-1],"split_conditions":[-4.948628E-1,-3.2287586E-1,-2.8644829E0,-5.94977E-1,-6.590731E-1,-1.0673527E0,-1.17658764E-1,5.471627E-2,1.1079783E0,1.1862455E-1,-5.358814E-1,-2.5142197E-2,3.4641144E-1,-1.03695765E-1,-2.672664E0,-9.247702E-1,-5.8542628E-2,-2.3488157E0,-3.650481E-1,2.2309105E-1,-7.171504E-2,-7.7702254E-1,-9.7000563E-1,-1.5746868E0,1E0,-4.9896708E-1,-2.3677148E-1,2.6134672E-2,-8.928146E-1,2.4163373E-2,7.837925E-2,2.644301E-2,-1.7304935E-2,-6.62948E-2,-1.9281189E-3,-7.982605E-2,-3.0366404E-2,2.9195748E-2,-5.7099883E-2,-3.7178297E-2,7.224342E-2,7.506159E-2,1.5625559E-2,9.8273374E-2,2.3111235E-2,-3.1090295E-4,5.4125495E-2,-1.824296E-3,2.6610138E-2,-3.7494842E-2,-3.913111E-4,-1.1945458E-2,-7.0984766E-2,-6.579179E-2,-5.794282E-3],"split_indices":[40,6,7,39,7,31,12,35,2,2,28,0,40,38,5,6,18,7,15,37,0,0,41,0,46,5,41,41,31,0,0,0,0,0,0,0,0,0,0,0,0,0,0,0,0,0,0,0,0,0,0,0,0,0,0],"split_type":[0,0,0,0,0,0,0,0,0,0,0,0,0,0,0,0,0,0,0,0,0,0,0,0,0,0,0,0,0,0,0,0,0,0,0,0,0,0,0,0,0,0,0,0,0,0,0,0,0,0,0,0,0,0,0],"sum_hessian":[4.6332026E3,9.7171924E2,3.6614834E3,4.7387302E2,4.9784625E2,5.7585262E1,3.6038982E3,1.1794625E2,3.5592676E2,5.623238E1,4.4161386E2,9.384607E0,4.8200653E1,1.5678618E3,2.0360363E3,5.440226E1,6.3543995E1,3.398169E2,1.610987E1,4.2451244E1,1.3781136E1,6.934489E1,3.7226898E2,2.217266E1,2.6027994E1,4.6080646E2,1.1070554E3,3.4923286E1,2.001113E3,3.315986E1,2.1242401E1,2.7723135E1,3.5820858E1,1.1600723E1,3.2821616E2,8.058405E0,8.051466E0,3.2491684E1,9.959562E0,9.219743E0,6.012515E1,1.6721123E1,3.5554785E2,1.0670449E1,1.1502212E1,1.7204683E1,8.823311E0,2.3641708E2,2.2438937E2,1.0233586E2,1.00471954E3,1.1443376E1,2.347991E1,9.643135E0,1.9914698E3],"tree_param":{"num_deleted":"0","num_feature":"52","num_nodes":"55","size_leaf_vector":"1"}},{"base_weights":[-3.2641275E-3,5.626618E-1,-6.991627E-2,-3.8648504E-1,7.6207584E-1,1.8672287E-1,-1.7566141E-1,-8.874728E-2,2.3403466E-1,1.9899879E0,5.970218E-1,-5.747001E-2,5.2347314E-1,-5.6587243E-1,-7.935648E-2,7.188257E-2,-2.9239848E-1,4.4335032E-1,3.07301E0,5.068799E-1,9.087874E-2,2.4722634E-1,-3.47665E-1,1.2888424E0,2.5752202E-1,-6.131006E-1,6.6048376E-2,8.72223E-1,-1.1909643E-1,1.5626917E-2,-2.552173E-2,-2.1149362E-2,4.4299513E-2,2.9222934E-2,1.5525591E-1,2.065071E-2,-1.6121617E-2,-6.565369E-3,2.0787545E-2,-1.4689491E-2,3.9016973E-2,2.1898888E-2,8.070285E-2,6.2605865E-2,4.199704E-3,-1.3771178E-3,-2.508963E-2,-7.792957E-3,3.8767233E-2,-4.567039E-3,2.9385129E-2],"categories":[],"categories_nodes":[],"categories_segments":[],"categories_sizes":[],"default_left":[0,0,0,0,0,0,0,0,0,0,0,0,0,0,0,0,0,0,0,0,0,0,0,0,0,0,0,0,0,0,0,0,0,0,0,0,0,0,0,0,0,0,0,0,0,0,0,0,0,0,0],"id":12,"left_children":[1,3,5,7,9,11,13,-1,15,17,19,21,23,25,27,-1,29,31,33,35,-1,37,39,41,43,45,-1,47,49,-1,-1,-1,-1,-1,-1,-1,-1,-1,-1,-1,-1,-1,-1,-1,-1,-1,-1,-1,-1,-1,-1],"loss_changes":[1.746443E2,9.299242E1,1.125442E2,1.3892445E2,7.897743E1,9.964281E1,1.10146E2,0E0,8.257513E1,7.5072235E1,7.495282E1,6.233174E1,1.0265347E2,7.826921E1,8.923598E1,0E0,2.7636528E1,2.8001984E1,1.08483154E2,6.686035E1,0E0,7.1782906E1,8.562137E1,9.765697E1,8.078118E1,7.223111E1,0E0,4.584445E1,8.2616104E1,0E0,0E0,0E0,0E0,0E0,0E0,0E0,0E0,0E0,0E0,0E0,0E0,0E0,0E0,0E0,0E0,0E0,0E0,0E0,0E0,0E0,0E0],"parents":[2147483647,0,0,1,1,2,2,3,3,4,4,5,5,6,6,8,8,9,9,10,10,11,11,12,12,13,13,14,14,16,16,17,17,18,18,19,19,21,21,22,22,23,23,24,24,25,25,27,27,28,28],"right_children":[2,4,6,8,10,12,14,-1,16,18,20,22,24,26,28,-1,30,32,34,36,-1,38,40,42,44,46,-1,48,50,-1,-1,-1,-1,-1,-1,-1,-1,-1,-1,-1,-1,-1,-1,-1,-1,-1,-1,-1,-1,-1,-1],"split_conditions":[-8.013546E-1,-8.9009774E-1,-3.18524E-1,-3.5106385E-1,-3.8030246E-1,-4.4694656E-1,-1.0491265E-1,-8.874728E-2,-8.294688E-1,-1.1180975E0,7.740274E-1,-6.4283687E-1,-2.5777236E-1,8.228778E-1,-8.078763E-2,7.188257E-2,1.8485957E-1,-4.228282E-1,-1.281125E-1,1.2515762E-1,9.087874E-2,-7.83011E-1,-2.0146151E-1,-4.7552076E-1,-6.26247E-1,-7.559716E-1,6.6048376E-2,-3.867613E-1,1.0152467E0,1.5626917E-2,-2.552173E-2,-2.1149362E-2,4.4299513E-2,2.9222934E-2,1.5525591E-1,2.065071E-2,-1.6121617E-2,-6.565369E-3,2.0787545E-2,-1.4689491E-2,3.9016973E-2,2.1898888E-2,8.070285E-2,6.2605865E-2,4.199704E-3,-1.3771178E-3,-2.508963E-2,-7.792957E-3,3.8767233E-2,-4.567039E-3,2.9385129E-2],"split_indices":[40,5,39,16,0,0,31,0,29,1,28,39,16,5,39,0,37,39,27,28,0,39,5,37,29,7,0,41,7,0,0,0,0,0,0,0,0,0,0,0,0,0,0,0,0,0,0,0,0,0,0],"split_type":[0,0,0,0,0,0,0,0,0,0,0,0,0,0,0,0,0,0,0,0,0,0,0,0,0,0,0,0,0,0,0,0,0,0,0,0,0,0,0,0,0,0,0,0,0,0,0,0,0,0,0],"sum_hessian":[4.628523E3,4.85804E2,4.142719E3,8.384578E1,4.0195822E2,1.2078628E3,2.9348564E3,1.4896109E1,6.894967E1,4.4864677E1,3.5709354E2,7.0076855E2,5.0709427E2,5.7860803E2,2.3562483E3,1.2184593E1,5.6765076E1,1.9714407E1,2.5150269E1,3.46742E2,1.0351519E1,3.416514E2,3.5911713E2,1.2858904E2,3.7850522E2,5.705014E2,8.106621E0,9.257582E1,2.2636726E3,2.301529E1,3.3749786E1,9.546784E0,1.01676235E1,1.4097059E1,1.105321E1,2.9614914E2,5.0592876E1,1.6728557E2,1.7436583E2,3.3204108E2,2.7076054E1,9.420188E1,3.4387146E1,2.0724407E1,3.5778082E2,1.6204843E2,4.0845297E2,2.5131357E1,6.7444466E1,2.1992395E3,6.443299E1],"tree_param":{"num_deleted":"0","num_feature":"52","num_nodes":"51","size_leaf_vector":"1"}},{"base_weights":[-1.9466098E-2,1.3725407E-1,-1.8141001E-1,1.104635E0,6.7075774E-2,-2.6747873E-1,2.4220899E-1,1.5255612E-1,1.8760304E0,-3.231726E-3,9.0287894E-1,1.2422396E-1,-3.7789527E-1,6.8049556E-1,-4.859894E-1,7.3801136E-1,-7.92786E-2,-1.8189532E-4,2.2285175E0,7.7529915E-2,-6.1341304E-1,1.238488E0,-6.257598E-1,6.6024375E-1,-9.2034556E-2,-4.225384E-1,5.321571E-1,1.4093323E0,4.482169E-2,-7.264773E-1,8.003532E-1,4.314495E-2,-5.986834E-3,2.4264598E-2,8.7448634E-2,1.3390792E-2,-7.698833E-4,-1.2108963E-2,-8.6710416E-2,5.130029E-2,-6.364618E-3,1.148668E-2,-8.761702E-2,3.633684E-2,-1.5551673E-3,-7.299651E-2,-0E0,-1.0438895E-2,-5.1133778E-2,-1.607977E-2,2.5425775E-2,1.7083548E-2,6.730964E-2,-5.072855E-2,8.349018E-3,1.7153556E-2,-3.0653728E-2,5.1609963E-2,6.773595E-4],"categories":[],"categories_nodes":[],"categories_segments":[],"categories_sizes":[],"default_left":[0,0,0,0,0,0,0,0,0,0,0,0,0,0,0,0,0,0,0,0,0,0,0,0,0,0,0,0,0,0,0,0,0,0,0,0,0,0,0,0,0,0,0,0,0,0,0,0,0,0,0,0,0,0,0,0,0,0,0],"id":13,"left_children":[1,3,5,7,9,11,13,15,17,19,21,23,25,27,29,31,-1,-1,33,35,37,39,41,43,45,47,49,51,53,55,57,-1,-1,-1,-1,-1,-1,-1,-1,-1,-1,-1,-1,-1,-1,-1,-1,-1,-1,-1,-1,-1,-1,-1,-1,-1,-1,-1,-1],"loss_changes":[1.18640236E2,1.6085019E2,8.396893E1,1.1676112E2,1.3044193E2,8.285651E1,1.2483255E2,1.246933E2,5.9029236E1,1.0104761E2,9.002658E1,4.9111675E1,6.107457E1,1.12537766E2,4.6662987E1,4.207655E1,0E0,0E0,6.7082886E1,6.894696E1,1.1150732E2,9.815195E1,7.7334755E1,4.8114323E1,6.50848E1,1.3456291E2,2.4712498E1,7.632172E1,5.433099E1,4.9234917E1,1.6742939E1,0E0,0E0,0E0,0E0,0E0,0E0,0E0,0E0,0E0,0E0,0E0,0E0,0E0,0E0,0E0,0E0,0E0,0E0,0E0,0E0,0E0,0E0,0E0,0E0,0E0,0E0,0E0,0E0],"parents":[2147483647,0,0,1,1,2,2,3,3,4,4,5,5,6,6,7,7,8,8,9,9,10,10,11,11,12,12,13,13,14,14,15,15,18,18,19,19,20,20,21,21,22,22,23,23,24,24,25,25,26,26,27,27,28,28,29,29,30,30],"right_children":[2,4,6,8,10,12,14,16,18,20,22,24,26,28,30,32,-1,-1,34,36,38,40,42,44,46,48,50,52,54,56,58,-1,-1,-1,-1,-1,-1,-1,-1,-1,-1,-1,-1,-1,-1,-1,-1,-1,-1,-1,-1,-1,-1,-1,-1,-1,-1,-1,-1],"split_conditions":[1.3822524E-1,-7.202238E-1,1E0,-4.1258276E-1,6.1262983E-1,-1.1245182E0,1.425719E0,-1.4389671E-2,-4.57077E-1,1E0,8.8179046E-1,-1.4397601E0,1.1497967E0,5.003658E-1,2.767257E0,-1.7657918E-1,-7.92786E-2,-1.8189532E-4,-8.12901E-1,-5.485185E-1,-5.720515E-1,5.1901096E-1,4.3625084E-1,1.8540354E0,-8.4049606E-1,9.15765E-1,8.4819585E-2,5.380262E-1,2.6899996E-1,-1.0202345E-1,9.694316E-1,4.314495E-2,-5.986834E-3,2.4264598E-2,8.7448634E-2,1.3390792E-2,-7.698833E-4,-1.2108963E-2,-8.6710416E-2,5.130029E-2,-6.364618E-3,1.148668E-2,-8.761702E-2,3.633684E-2,-1.5551673E-3,-7.299651E-2,-0E0,-1.0438895E-2,-5.1133778E-2,-1.607977E-2,2.5425775E-2,1.7083548E-2,6.730964E-2,-5.072855E-2,8.349018E-3,1.7153556E-2,-3.0653728E-2,5.1609963E-2,6.773595E-4],"split_indices":[29,27,50,5,5,27,28,39,2,44,37,12,5,12,31,6,0,0,36,29,0,6,27,29,5,5,28,28,39,6,14,0,0,0,0,0,0,0,0,0,0,0,0,0,0,0,0,0,0,0,0,0,0,0,0,0,0,0,0],"split_type":[0,0,0,0,0,0,0,0,0,0,0,0,0,0,0,0,0,0,0,0,0,0,0,0,0,0,0,0,0,0,0,0,0,0,0,0,0,0,0,0,0,0,0,0,0,0,0,0,0,0,0,0,0,0,0,0,0,0,0],"sum_hessian":[4.670269E3,2.372941E3,2.2973284E3,1.583139E2,2.214627E3,1.9103937E3,3.8693463E2,7.204664E1,8.6267265E1,2.0444052E3,1.7022174E2,4.1964423E2,1.4907494E3,2.4180386E2,1.4513077E2,6.0845844E1,1.1200793E1,1.3828522E1,7.243874E1,1.806695E3,2.3771024E2,1.3999634E2,3.0225409E1,1.19721214E2,2.99923E2,1.4222703E3,6.84791E1,1.1136674E2,1.3043713E2,1.2313588E2,2.1994888E1,3.4344086E1,2.650176E1,2.5124289E1,4.7314457E1,3.93946E2,1.412749E3,2.1989317E2,1.7817059E1,1.0548832E2,3.450801E1,2.2093624E1,8.131784E0,6.6863525E1,5.285769E1,9.4249935E0,2.9049802E2,1.3466296E3,7.564071E1,1.51461115E1,5.3332996E1,5.7294914E1,5.4071823E1,1.3883124E1,1.16554E2,2.2346445E1,1.0078944E2,8.848134E0,1.3146754E1],"tree_param":{"num_deleted":"0","num_feature":"52","num_nodes":"59","size_leaf_vector":"1"}},{"base_weights":[-1.0354835E-2,5.6884986E-1,-6.186812E-2,6.479983E-1,-4.9266115E-2,8.531794E-2,-1.7373502E-1,8.2965034E-1,-2.5376394E-1,1.8838632E-1,-4.8761427E-1,-2.231302E-1,3.05583E-1,-1.8441247E-2,9.9610174E-1,-4.6594262E-2,1.2105308E-1,1.2862793E-1,1.3855339E0,-8.1497437E-1,5.446608E-1,8.073476E-1,-2.4877048E-1,1.4276217E0,-2.878042E-1,-5.1408596E-2,1.8123789E-2,-3.4260698E-2,3.2380182E-2,5.0235413E-2,-1.4348724E-2,2.7892925E-2,1.7391144E-3,-4.8194504E-3,5.5149004E-2,6.9347303E-3,-3.4796916E-2,9.1644526E-2,-6.091275E-4,4.3645543E-3,5.2979454E-2,-1.5912531E-2,-3.717694E-3,1.029451E-1,2.692266E-2,3.64038E-2,-1.4509365E-2],"categories":[],"categories_nodes":[],"categories_segments":[],"categories_sizes":[],"default_left":[0,0,0,0,0,0,0,0,0,0,0,0,0,0,0,0,0,0,0,0,0,0,0,0,0,0,0,0,0,0,0,0,0,0,0,0,0,0,0,0,0,0,0,0,0,0,0],"id":14,"left_children":[1,3,5,7,-1,9,11,13,15,17,19,21,23,25,27,-1,29,31,33,35,37,39,41,43,45,-1,-1,-1,-1,-1,-1,-1,-1,-1,-1,-1,-1,-1,-1,-1,-1,-1,-1,-1,-1,-1,-1],"loss_changes":[1.3957004E2,6.878312E1,7.082835E1,6.1200043E1,0E0,1.0977762E2,5.7981323E1,4.383806E1,3.1559574E1,1.1205449E2,9.6704285E1,5.8869637E1,1.5337653E2,5.76418E1,4.844989E1,0E0,4.929989E1,8.477381E1,5.3111313E1,7.869879E1,9.898334E1,3.343463E1,7.586508E1,7.753854E1,4.5480362E1,0E0,0E0,0E0,0E0,0E0,0E0,0E0,0E0,0E0,0E0,0E0,0E0,0E0,0E0,0E0,0E0,0E0,0E0,0E0,0E0,0E0,0E0],"parents":[2147483647,0,0,1,1,2,2,3,3,5,5,6,6,7,7,8,8,9,9,10,10,11,11,12,12,13,13,14,14,16,16,17,17,18,18,19,19,20,20,21,21,22,22,23,23,24,24],"right_children":[2,4,6,8,-1,10,12,14,16,18,20,22,24,26,28,-1,30,32,34,36,38,40,42,44,46,-1,-1,-1,-1,-1,-1,-1,-1,-1,-1,-1,-1,-1,-1,-1,-1,-1,-1,-1,-1,-1,-1],"split_conditions":[-8.986205E-1,1.1083554E0,-8.87259E-2,7.982318E-1,-4.9266115E-2,1.1252613E0,1E0,-1.142087E0,-5.8682704E-1,1.1442195E0,2.4042892E0,-2.8644829E0,-1.3619746E-1,-2.1442914E-1,-1.6881707E0,-4.6594262E-2,-1.7586924E-1,-6.361617E-1,-1.0589942E0,2.912071E-1,5.252829E-3,-1.7931159E0,-2.903505E-1,-2.3353356E-1,-9.883159E-1,-5.1408596E-2,1.8123789E-2,-3.4260698E-2,3.2380182E-2,5.0235413E-2,-1.4348724E-2,2.7892925E-2,1.7391144E-3,-4.8194504E-3,5.5149004E-2,6.9347303E-3,-3.4796916E-2,9.1644526E-2,-6.091275E-4,4.3645543E-3,5.2979454E-2,-1.5912531E-2,-3.717694E-3,1.029451E-1,2.692266E-2,3.64038E-2,-1.4509365E-2],"split_indices":[40,1,12,37,0,31,42,1,0,0,31,7,41,36,7,0,27,38,37,2,41,0,0,27,27,0,0,0,0,0,0,0,0,0,0,0,0,0,0,0,0,0,0,0,0,0,0],"split_type":[0,0,0,0,0,0,0,0,0,0,0,0,0,0,0,0,0,0,0,0,0,0,0,0,0,0,0,0,0,0,0,0,0,0,0,0,0,0,0,0,0,0,0,0,0,0,0],"sum_hessian":[4.676831E3,3.800181E2,4.296813E3,3.6833716E2,1.1680937E1,1.8549266E3,2.4418862E3,3.0689716E2,6.1440014E1,1.5735435E3,2.8138318E2,2.2150996E3,2.2678648E2,5.044585E1,2.564513E2,1.2466952E1,4.897306E1,1.5009996E3,7.254391E1,2.1410114E2,6.7282036E1,5.2108173E1,2.1629915E3,7.759223E1,1.4919426E2,1.2695024E1,3.7750824E1,8.566289E0,2.4788501E2,1.2728217E1,3.6244843E1,1.1945325E2,1.3815464E3,1.6623573E1,5.592033E1,5.3107822E1,1.6099332E2,1.0806822E1,5.6475216E1,3.2311646E1,1.9796526E1,6.618356E2,1.5011559E3,1.3865683E1,6.3726547E1,1.5899518E1,1.3329474E2],"tree_param":{"num_deleted":"0","num_feature":"52","num_nodes":"47","size_leaf_vector":"1"}},{"base_weights":[3.1991913E-3,5.276621E-1,-5.768063E-2,1.9057779E-1,1.0695361E0,1.7892195E-1,-1.495333E-1,4.9488628E-1,-3.0688766E-1,1.3067412E-1,8.6811787E-1,7.428189E-2,8.846762E-1,-4.8813882E-1,-5.8662143E-2,1.7636997E0,2.7080485E-1,-1.1535301E0,1.5489395E-1,1.454998E0,3.2573575E-1,3.3329394E-1,-2.970675E-1,1.366685E0,-9.6251976E-1,-8.34962E-1,-2.9444182E-2,6.4502156E-1,-1.13569506E-1,5.018498E-3,9.304914E-2,-3.9869975E-3,2.7538605E-2,-7.501245E-2,-3.262425E-3,4.0879253E-2,-9.6403565E-3,7.939239E-2,1.2665652E-2,2.1890812E-2,-2.0435192E-2,5.1610633E-3,2.9772071E-2,-1.790676E-2,5.8769723E-3,1.1666008E-1,2.5565205E-2,-1.0258942E-1,9.7115645E-3,-1.6136682E-2,-8.7893985E-2,-3.860886E-3,6.719027E-2,-1.0017922E-2,2.9690813E-2,-4.353283E-3,2.7791582E-2],"categories":[],"categories_nodes":[],"categories_segments":[],"categories_sizes":[],"default_left":[0,0,0,0,0,0,0,0,0,0,0,0,0,0,0,0,0,0,0,0,0,0,0,0,0,0,0,0,0,0,0,0,0,0,0,0,0,0,0,0,0,0,0,0,0,0,0,0,0,0,0,0,0,0,0,0,0],"id":15,"left_children":[1,3,5,7,9,11,13,15,17,-1,19,21,23,25,27,29,31,33,35,37,39,41,43,45,47,49,51,53,55,-1,-1,-1,-1,-1,-1,-1,-1,-1,-1,-1,-1,-1,-1,-1,-1,-1,-1,-1,-1,-1,-1,-1,-1,-1,-1,-1,-1],"loss_changes":[1.50192E2,8.870979E1,9.158049E1,4.640667E1,1.1515567E2,8.668176E1,9.323882E1,5.260634E1,4.6096157E1,0E0,5.5589523E1,9.912429E1,1.3777351E2,1.0184148E2,9.261899E1,5.8102356E1,4.3200905E1,5.7331104E1,4.5361397E1,1.0185756E2,3.9906372E1,6.395421E1,6.2882057E1,1.4970964E2,1.0548195E2,2.233074E2,6.288828E1,5.9322823E1,7.308055E1,0E0,0E0,0E0,0E0,0E0,0E0,0E0,0E0,0E0,0E0,0E0,0E0,0E0,0E0,0E0,0E0,0E0,0E0,0E0,0E0,0E0,0E0,0E0,0E0,0E0,0E0,0E0,0E0],"parents":[2147483647,0,0,1,1,2,2,3,3,4,4,5,5,6,6,7,7,8,8,10,10,11,11,12,12,13,13,14,14,15,15,16,16,17,17,18,18,19,19,20,20,21,21,22,22,23,23,24,24,25,25,26,26,27,27,28,28],"right_children":[2,4,6,8,10,12,14,16,18,-1,20,22,24,26,28,30,32,34,36,38,40,42,44,46,48,50,52,54,56,-1,-1,-1,-1,-1,-1,-1,-1,-1,-1,-1,-1,-1,-1,-1,-1,-1,-1,-1,-1,-1,-1,-1,-1,-1,-1,-1,-1],"split_conditions":[-8.148875E-1,-8.119416E-2,-3.368651E-1,6.8743774E-3,-5.0316656E-1,3.1627548E-1,-1.0491265E-1,-6.1599195E-1,4.613824E-2,1.3067412E-1,-9.757608E-2,1.4537057E-1,1E0,3.716847E-2,-2.3109917E-2,-1.5037682E0,1.8452497E-1,-8.9009774E-1,2.3027578E-1,1.9083604E-1,6.6121805E-1,-1.9118673E-1,-2.5468493E-1,-2.7543798E-1,-4.1009367E-1,5.9417054E-2,8.228778E-1,-3.9768723E-1,1.0152467E0,5.018498E-3,9.304914E-2,-3.9869975E-3,2.7538605E-2,-7.501245E-2,-3.262425E-3,4.0879253E-2,-9.6403565E-3,7.939239E-2,1.2665652E-2,2.1890812E-2,-2.0435192E-2,5.1610633E-3,2.9772071E-2,-1.790676E-2,5.8769723E-3,1.1666008E-1,2.5565205E-2,-1.0258942E-1,9.7115645E-3,-1.6136682E-2,-8.7893985E-2,-3.860886E-3,6.719027E-2,-1.0017922E-2,2.9690813E-2,-4.353283E-3,2.7791582E-2],"split_indices":[40,6,39,15,1,5,31,39,14,0,38,27,45,7,39,1,31,5,14,1,37,5,30,16,29,5,5,41,7,0,0,0,0,0,0,0,0,0,0,0,0,0,0,0,0,0,0,0,0,0,0,0,0,0,0,0,0],"split_type":[0,0,0,0,0,0,0,0,0,0,0,0,0,0,0,0,0,0,0,0,0,0,0,0,0,0,0,0,0,0,0,0,0,0,0,0,0,0,0,0,0,0,0,0,0,0,0,0,0,0,0,0,0,0,0,0,0],"sum_hessian":[4.6970557E3,4.872741E2,4.2097817E3,3.0229657E2,1.8497754E2,1.1761284E3,3.0336533E3,1.878176E2,1.1447897E2,8.243025E0,1.7673451E2,1.0264357E3,1.4969263E2,6.395622E2,2.394091E3,2.5994598E1,1.61823E2,3.94985E1,7.498047E1,8.3091774E1,9.364274E1,6.0511694E2,4.213188E2,1.192135E2,3.0479134E1,3.6301022E2,2.7655194E2,1.7146655E2,2.2226245E3,1.2946497E1,1.3048102E1,1.0044411E2,6.1378895E1,1.5953756E1,2.3544744E1,2.027084E1,5.4709633E1,3.704247E1,4.6049305E1,6.7365776E1,2.6276966E1,4.884399E2,1.1667702E2,2.6197092E2,1.5934787E2,1.7911566E1,1.0130193E2,9.38637E0,2.1092764E1,3.2020972E2,4.28005E1,2.6685437E2,9.697589E0,4.4515076E1,1.2695148E2,2.1590576E3,6.356697E1],"tree_param":{"num_deleted":"0","num_feature":"52","num_nodes":"57","size_leaf_vector":"1"}},{"base_weights":[4.191386E-3,3.2855025E-1,-9.009681E-2,1.38588175E-2,7.427029E-1,9.365382E-2,-1.8086925E-1,-4.935037E-2,7.167243E-2,2.1035404E0,5.3754294E-1,1.4265577E0,4.162832E-2,-6.5491533E-1,-9.512867E-2,7.529743E-2,-1.0681999E0,-3.196722E-2,2.9558525E0,3.8127428E-1,1.5594306E0,2.239766E0,-3.144841E-3,-1.7049417E-1,2.841197E-1,-4.6619657E-1,-1.217808E0,7.991476E-1,-1.3872957E-1,7.0980065E-2,8.4339066E-5,-1.2842113E-2,-6.113312E-2,1.1731235E-1,1.4966668E-2,1.347537E-2,-5.501704E-2,6.8198994E-2,-0E0,2.5894571E-2,1.15924306E-1,-2.565396E-3,-4.913356E-2,2.1296954E-2,-2.6997621E-3,-4.9745403E-2,-9.3086995E-3,-2.6054101E-2,-9.2774644E-2,-2.2708208E-3,4.361985E-2,-5.0314395E-3,2.3855781E-2],"categories":[],"categories_nodes":[],"categories_segments":[],"categories_sizes":[],"default_left":[0,0,0,0,0,0,0,0,0,0,0,0,0,0,0,0,0,0,0,0,0,0,0,0,0,0,0,0,0,0,0,0,0,0,0,0,0,0,0,0,0,0,0,0,0,0,0,0,0,0,0,0,0],"id":16,"left_children":[1,3,5,7,9,11,13,15,-1,17,19,21,23,25,27,29,31,-1,33,35,37,39,-1,41,43,45,47,49,51,-1,-1,-1,-1,-1,-1,-1,-1,-1,-1,-1,-1,-1,-1,-1,-1,-1,-1,-1,-1,-1,-1,-1,-1],"loss_changes":[1.4352911E2,1.3760016E2,6.06725E1,9.123422E1,1.2455112E2,8.296429E1,9.866045E1,7.5190994E1,0E0,1.658794E2,6.2165604E1,5.688954E1,5.975586E1,3.805847E1,8.056749E1,8.696852E1,3.7817055E1,0E0,1.055119E2,5.3873558E1,5.8222885E1,5.844397E1,0E0,7.658771E1,8.661145E1,5.1020763E1,5.404088E1,5.5513416E1,5.3467754E1,0E0,0E0,0E0,0E0,0E0,0E0,0E0,0E0,0E0,0E0,0E0,0E0,0E0,0E0,0E0,0E0,0E0,0E0,0E0,0E0,0E0,0E0,0E0,0E0],"parents":[2147483647,0,0,1,1,2,2,3,3,4,4,5,5,6,6,7,7,9,9,10,10,11,11,12,12,13,13,14,14,15,15,16,16,18,18,19,19,20,20,21,21,23,23,24,24,25,25,26,26,27,27,28,28],"right_children":[2,4,6,8,10,12,14,16,-1,18,20,22,24,26,28,30,32,-1,34,36,38,40,-1,42,44,46,48,50,52,-1,-1,-1,-1,-1,-1,-1,-1,-1,-1,-1,-1,-1,-1,-1,-1,-1,-1,-1,-1,-1,-1,-1,-1],"split_conditions":[-4.5852554E-1,-1.3455895E-1,-2.2724281E-1,1.8231333E0,-5.697157E-1,-7.312484E-1,-1.0491265E-1,6.791389E-1,7.167243E-2,-7.7702254E-1,1E0,2.8214484E-1,-3.7332374E-1,3.2099593E-1,-3.021559E-2,-8.981948E-1,8.1941265E-1,-3.196722E-2,2.6244304E-1,7.082275E-1,2.5425446E-1,-6.123604E-1,-3.144841E-3,3.3690017E-1,1.5143114E-1,-5.3099576E-2,1E0,-9.448401E-4,1.0152467E0,7.0980065E-2,8.4339066E-5,-1.2842113E-2,-6.113312E-2,1.1731235E-1,1.4966668E-2,1.347537E-2,-5.501704E-2,6.8198994E-2,-0E0,2.5894571E-2,1.15924306E-1,-2.565396E-3,-4.913356E-2,2.1296954E-2,-2.6997621E-3,-4.9745403E-2,-9.3086995E-3,-2.6054101E-2,-9.2774644E-2,-2.2708208E-3,4.361985E-2,-5.0314395E-3,2.3855781E-2],"split_indices":[40,6,39,27,28,27,31,16,0,0,42,7,5,27,38,39,37,0,1,6,1,1,0,6,27,41,48,0,7,0,0,0,0,0,0,0,0,0,0,0,0,0,0,0,0,0,0,0,0,0,0,0,0],"split_type":[0,0,0,0,0,0,0,0,0,0,0,0,0,0,0,0,0,0,0,0,0,0,0,0,0,0,0,0,0,0,0,0,0,0,0,0,0,0,0,0,0,0,0,0,0,0,0,0,0,0,0,0,0],"sum_hessian":[4.6875728E3,1.0550994E3,3.6324736E3,6.009903E2,4.541091E2,1.2003463E3,2.4321272E3,5.8723706E2,1.3753254E1,5.6940224E1,3.9716888E2,4.296216E1,1.1573842E3,3.701297E2,2.0619976E3,5.2470026E2,6.2536835E1,1.19122715E1,4.5027954E1,3.470408E2,5.0128082E1,2.7542028E1,1.5420129E1,6.172263E2,5.401578E2,2.8019992E2,8.992976E1,9.403561E1,1.9679619E3,1.4068458E1,5.1063177E2,3.9528584E1,2.3008251E1,3.1518225E1,1.35097275E1,3.3835355E2,8.687258E0,3.3795868E1,1.6332216E1,1.663241E1,1.0909619E1,5.855651E2,3.1661253E1,2.5204424E2,2.8811356E2,3.0032469E1,2.5016747E2,7.83608E1,1.1568961E1,4.0882347E1,5.3153255E1,1.9105222E3,5.7439735E1],"tree_param":{"num_deleted":"0","num_feature":"52","num_nodes":"53","size_leaf_vector":"1"}},{"base_weights":[-1.7433321E-2,1.7342709E-1,-1.5898271E-1,2.1892636E-1,-1.9193963E0,5.486226E-2,-2.88399E-1,7.5980586E-1,1.2852994E-1,-3.574212E0,-2.3758118E-1,-2.3560262E-1,2.667442E-1,1.7946006E-1,-3.6715153E-1,4.9605846E-1,2.4994037E0,-2.3348272E-1,3.0757788E-1,-1.4315678E-1,-3.7610706E-2,-3.7720647E-2,1.9691056E-2,1.0966604E0,-3.2746193E-1,4.9070635E-1,-2.4993585E-1,-4.970421E-2,1.2573326E0,-1.2251062E0,-2.8233844E-1,7.327576E-2,1.022794E-2,1.4353974E-1,2.0163441E-2,-1.1310533E-2,2.6666323E-2,-4.4641696E-2,1.0455003E-2,4.8769105E-2,-2.627277E-3,-1.5263062E-2,4.094256E-3,1.8330663E-2,-3.0067852E-2,-1.3823836E-2,2.7594605E-2,-7.869638E-3,3.788458E-2,8.714843E-2,1.8210828E-2,-7.407596E-2,-2.7940445E-2,-4.2247646E-2,-7.5176167E-3],"categories":[],"categories_nodes":[],"categories_segments":[],"categories_sizes":[],"default_left":[0,0,0,0,0,0,0,0,0,0,0,0,0,0,0,0,0,0,0,0,0,0,0,0,0,0,0,0,0,0,0,0,0,0,0,0,0,0,0,0,0,0,0,0,0,0,0,0,0,0,0,0,0,0,0],"id":17,"left_children":[1,3,5,7,9,11,13,15,17,19,21,23,25,27,29,31,33,35,37,-1,-1,-1,-1,39,41,43,45,47,49,51,53,-1,-1,-1,-1,-1,-1,-1,-1,-1,-1,-1,-1,-1,-1,-1,-1,-1,-1,-1,-1,-1,-1,-1,-1],"loss_changes":[1.2742128E2,1.9170027E2,7.5039116E1,9.580577E1,1.16756516E2,6.3048367E1,6.2375214E1,1.2582886E2,1.0958006E2,4.627545E1,2.3145817E1,5.341478E1,6.884914E1,6.069102E1,1.0423268E2,7.222781E1,1.4445206E2,9.068759E1,8.38974E1,0E0,0E0,0E0,0E0,1.8242065E1,3.433685E1,7.5555534E1,4.5203697E1,5.716025E1,4.1895027E1,4.1968155E1,4.610884E1,0E0,0E0,0E0,0E0,0E0,0E0,0E0,0E0,0E0,0E0,0E0,0E0,0E0,0E0,0E0,0E0,0E0,0E0,0E0,0E0,0E0,0E0,0E0,0E0],"parents":[2147483647,0,0,1,1,2,2,3,3,4,4,5,5,6,6,7,7,8,8,9,9,10,10,11,11,12,12,13,13,14,14,15,15,16,16,17,17,18,18,23,23,24,24,25,25,26,26,27,27,28,28,29,29,30,30],"right_children":[2,4,6,8,10,12,14,16,18,20,22,24,26,28,30,32,34,36,38,-1,-1,-1,-1,40,42,44,46,48,50,52,54,-1,-1,-1,-1,-1,-1,-1,-1,-1,-1,-1,-1,-1,-1,-1,-1,-1,-1,-1,-1,-1,-1,-1,-1],"split_conditions":[-2.387697E-2,7.26192E-1,-2.4493839E-1,-6.227965E-1,-2.4193461E-1,-3.4035902E-2,-1.0968812E0,1.7937204E-2,-1.6609249E-1,6.776856E-1,-1.0049213E-1,-1.8449093E0,1.4571388E0,-9.60173E-1,-7.659783E-1,-3.047338E0,2.555596E-1,9.989782E-1,-7.746205E-1,-1.4315678E-1,-3.7610706E-2,-3.7720647E-2,1.9691056E-2,8.1001244E-2,3.3800825E-1,1E0,7.913471E-1,1.2518471E0,3.7496498E-1,-8.571907E-1,-7.147843E-1,7.327576E-2,1.022794E-2,1.4353974E-1,2.0163441E-2,-1.1310533E-2,2.6666323E-2,-4.4641696E-2,1.0455003E-2,4.8769105E-2,-2.627277E-3,-1.5263062E-2,4.094256E-3,1.8330663E-2,-3.0067852E-2,-1.3823836E-2,2.7594605E-2,-7.869638E-3,3.788458E-2,8.714843E-2,1.8210828E-2,-7.407596E-2,-2.7940445E-2,-4.2247646E-2,-7.5176167E-3],"split_indices":[41,6,14,39,41,7,2,5,5,38,16,2,30,5,5,7,33,13,7,0,0,0,0,20,2,44,6,41,40,2,1,0,0,0,0,0,0,0,0,0,0,0,0,0,0,0,0,0,0,0,0,0,0,0,0],"split_type":[0,0,0,0,0,0,0,0,0,0,0,0,0,0,0,0,0,0,0,0,0,0,0,0,0,0,0,0,0,0,0,0,0,0,0,0,0,0,0,0,0,0,0,0,0,0,0,0,0,0,0,0,0,0,0],"sum_hessian":[4.712547E3,2.0059406E3,2.706606E3,1.9651044E3,4.0836224E1,1.0202959E3,1.68631E3,2.7895816E2,1.6861462E3,1.9389074E1,2.144715E1,4.298521E2,5.904438E2,2.4221902E2,1.4440911E3,2.445641E2,3.4394066E1,5.574092E2,1.128737E3,1.13381815E1,8.050892E0,9.7432375E0,1.1703913E1,2.617494E1,4.036772E2,4.1224017E2,1.7820361E2,2.0117075E2,4.1048283E1,1.2728184E2,1.3168092E3,1.57802725E1,2.2878383E2,1.3795151E1,2.0598913E1,4.955422E2,6.186694E1,2.3465754E1,1.1052712E3,1.769454E1,8.480401E0,2.904191E2,1.1325807E2,3.8271338E2,2.9526794E1,1.521588E2,2.6044817E1,1.7463423E2,2.6536518E1,9.567179E0,3.1481102E1,2.1353952E1,1.0592788E2,3.356515E1,1.2832441E3],"tree_param":{"num_deleted":"0","num_feature":"52","num_nodes":"55","size_leaf_vector":"1"}},{"base_weights":[-1.6750995E-3,4.263819E-1,-5.550404E-2,3.362087E-1,1.482996E-1,4.2210433E-1,-9.816149E-2,2.5759438E-1,1.05323985E-1,5.0778663E-1,-5.1935904E-2,-2.4456687E-1,1.5934484E-2,5.145026E-1,-2.0303494E-1,-3.4412522E-2,9.456873E-1,-1.9112404E-1,-1.5711495E0,2.9152283E-1,-1.6219145E-1,2.5471097E-2,4.4896128E-4,-1.1809083E-3,-6.933895E-2,1.8473243E-2,-2.0019794E-2,7.458012E-2,1.41987465E-2,-1.0490075E-2,5.5196662E-3,-6.53556E-2,2.861646E-2,1.935436E-2,-7.64915E-4,1.0163181E-2,-8.522944E-3],"categories":[],"categories_nodes":[],"categories_segments":[],"categories_sizes":[],"default_left":[0,0,0,0,0,0,0,0,0,0,0,0,0,0,0,0,0,0,0,0,0,0,0,0,0,0,0,0,0,0,0,0,0,0,0,0,0],"id":18,"left_children":[1,3,5,7,-1,9,11,13,-1,15,-1,17,19,21,23,25,27,29,31,33,35,-1,-1,-1,-1,-1,-1,-1,-1,-1,-1,-1,-1,-1,-1,-1,-1],"loss_changes":[1.0860378E2,2.1004529E2,8.538419E1,1.2679678E2,0E0,6.489682E1,6.433995E1,6.0390743E1,0E0,7.908115E1,0E0,1.1861232E2,1.0635105E2,5.4443504E1,6.251147E1,6.2589615E1,1.3090869E2,9.6720634E1,1.0391632E2,9.552938E1,8.0507E1,0E0,0E0,0E0,0E0,0E0,0E0,0E0,0E0,0E0,0E0,0E0,0E0,0E0,0E0,0E0,0E0],"parents":[2147483647,0,0,1,1,2,2,3,3,5,5,6,6,7,7,9,9,11,11,12,12,13,13,14,14,15,15,16,16,17,17,18,18,19,19,20,20],"right_children":[2,4,6,8,-1,10,12,14,-1,16,-1,18,20,22,24,26,28,30,32,34,36,-1,-1,-1,-1,-1,-1,-1,-1,-1,-1,-1,-1,-1,-1,-1,-1],"split_conditions":[-6.227965E-1,4.4459224E-1,-8.986205E-1,6.987699E-2,1.482996E-1,2.3606365E0,3.230065E-2,9.187289E-2,1.05323985E-1,6.795243E-2,-5.1935904E-2,4.296432E-1,1.9483529E-1,7.771438E-2,1.129299E-1,2.2309105E-1,1.9232574E-1,3.608008E-1,1E0,3.4591824E-2,2.3030113E-1,2.5471097E-2,4.4896128E-4,-1.1809083E-3,-6.933895E-2,1.8473243E-2,-2.0019794E-2,7.458012E-2,1.41987465E-2,-1.0490075E-2,5.5196662E-3,-6.53556E-2,2.861646E-2,1.935436E-2,-7.64915E-4,1.0163181E-2,-8.522944E-3],"split_indices":[39,5,40,0,0,2,7,12,0,31,0,5,29,41,7,37,39,31,50,14,7,0,0,0,0,0,0,0,0,0,0,0,0,0,0,0,0],"split_type":[0,0,0,0,0,0,0,0,0,0,0,0,0,0,0,0,0,0,0,0,0,0,0,0,0,0,0,0,0,0,0,0,0,0,0,0,0],"sum_hessian":[4.7124917E3,5.2444635E2,4.188045E3,5.163318E2,8.114566E0,3.4154163E2,3.8465037E3,5.0602603E2,1.0305742E1,3.3003058E2,1.1511044E1,1.6844811E3,2.1620225E3,3.249763E2,1.8104974E2,1.480743E2,1.8195628E2,1.6215924E3,6.2888733E1,8.4874E2,1.3132825E3,1.9355513E2,1.3142117E2,1.6998543E2,1.1064313E1,7.2911285E1,7.516301E1,4.0605976E1,1.4135031E2,1.1403016E3,4.812907E2,5.0979744E1,1.1908986E1,4.005283E2,4.4821173E2,2.560148E2,1.0572676E3],"tree_param":{"num_deleted":"0","num_feature":"52","num_nodes":"37","size_leaf_vector":"1"}},{"base_weights":[3.5970043E-3,4.8575926E-1,-5.550612E-2,7.3162735E-1,-1.1880054E-1,8.683873E-1,-7.193847E-2,8.117236E-1,-4.061433E-2,-7.7508956E-1,5.624563E-1,4.1229078E-1,2.0838902E0,7.4962564E-2,-1.8674088E-1,9.248874E-2,1.0186749E0,-1.11976E0,2.3583006E-2,1.188955E0,-5.755553E-1,8.0924845E-1,-4.1248504E-2,8.1009254E-2,3.348583E-2,1.7330343E-1,-4.531053E-1,-1.1019484E0,-1.3825253E-1,4.8567086E-2,-1.5687183E-2,6.048921E-2,1.89028E-2,1.7971426E-2,-4.2512268E-2,1.02730244E-1,1.636391E-2,-3.3217125E-2,1.0733843E-2,4.999197E-2,5.207337E-4,3.296919E-3,4.148709E-2,-2.3186786E-2,1.6619675E-2,-2.3010103E-2,-1.01038635E-1,2.8840718E-3,-7.0687844E-3],"categories":[],"categories_nodes":[],"categories_segments":[],"categories_sizes":[],"default_left":[0,0,0,0,0,0,0,0,0,0,0,0,0,0,0,0,0,0,0,0,0,0,0,0,0,0,0,0,0,0,0,0,0,0,0,0,0,0,0,0,0,0,0,0,0,0,0,0,0],"id":19,"left_children":[1,3,5,7,9,11,13,15,-1,17,19,21,23,25,27,29,31,33,-1,35,37,39,-1,-1,-1,41,43,45,47,-1,-1,-1,-1,-1,-1,-1,-1,-1,-1,-1,-1,-1,-1,-1,-1,-1,-1,-1,-1],"loss_changes":[1.3394115E2,7.658933E1,6.3485397E1,6.312262E1,6.792439E1,3.8283512E1,6.941275E1,5.2164658E1,0E0,4.3436905E1,5.4641808E1,4.1654144E1,4.733246E0,9.3829895E1,1.0195866E2,7.8319115E1,1.0310162E2,3.4706703E1,0E0,6.573233E1,1.4689821E1,3.1478056E1,0E0,0E0,0E0,1.1622845E2,9.223063E1,8.184721E1,5.0199482E1,0E0,0E0,0E0,0E0,0E0,0E0,0E0,0E0,0E0,0E0,0E0,0E0,0E0,0E0,0E0,0E0,0E0,0E0,0E0,0E0],"parents":[2147483647,0,0,1,1,2,2,3,3,4,4,5,5,6,6,7,7,9,9,10,10,11,11,12,12,13,13,14,14,15,15,16,16,17,17,19,19,20,20,21,21,25,25,26,26,27,27,28,28],"right_children":[2,4,6,8,10,12,14,16,-1,18,20,22,24,26,28,30,32,34,-1,36,38,40,-1,-1,-1,42,44,46,48,-1,-1,-1,-1,-1,-1,-1,-1,-1,-1,-1,-1,-1,-1,-1,-1,-1,-1,-1,-1],"split_conditions":[-8.013546E-1,6.641649E-2,-2.8644829E0,6.043035E-1,-3.3193263E-1,-2.0062702E0,-8.87259E-2,-6.079261E-1,-4.061433E-2,4.600685E-1,1.4620589E-1,9.179498E-1,2.3821595E-1,1.1252613E0,-1.7188061E0,-7.473388E-1,8.528941E-2,-8.063766E-1,2.3583006E-2,9.390308E-2,2.3639028E-1,3.46449E-1,-4.1248504E-2,8.1009254E-2,3.348583E-2,1.1442195E0,2.4042892E0,7.2702676E-1,-1.6297492E-1,4.8567086E-2,-1.5687183E-2,6.048921E-2,1.89028E-2,1.7971426E-2,-4.2512268E-2,1.02730244E-1,1.636391E-2,-3.3217125E-2,1.0733843E-2,4.999197E-2,5.207337E-4,3.296919E-3,4.148709E-2,-2.3186786E-2,1.6619675E-2,-2.3010103E-2,-1.01038635E-1,2.8840718E-3,-7.0687844E-3],"split_indices":[40,15,7,6,6,5,12,7,0,27,1,36,32,31,6,29,7,29,0,14,5,41,0,0,0,0,31,27,41,0,0,0,0,0,0,0,0,0,0,0,0,0,0,0,0,0,0,0,0],"split_type":[0,0,0,0,0,0,0,0,0,0,0,0,0,0,0,0,0,0,0,0,0,0,0,0,0,0,0,0,0,0,0,0,0,0,0,0,0,0,0,0,0,0,0,0,0,0,0,0,0],"sum_hessian":[4.6932227E3,5.1126645E2,4.1819565E3,3.6339E2,1.4787642E2,7.1055664E1,4.110901E3,3.5121808E2,1.2171931E1,7.532763E1,7.254879E1,5.3735332E1,1.732033E1,1.802884E3,2.3080166E3,7.934035E1,2.7187775E2,6.2272972E1,1.3054654E1,4.6845566E1,2.5703224E1,4.495652E1,8.778812E0,8.266818E0,9.053512E0,1.5212986E3,2.8158554E2,1.1373401E2,2.1942827E3,2.1952765E1,5.7387585E1,7.371967E1,1.9815807E2,8.784811E0,5.348816E1,8.469624E0,3.8375942E1,1.6274271E1,9.428953E0,2.0406788E1,2.4549734E1,1.4477556E3,7.3542984E1,2.1422525E2,6.736028E1,1.0149671E2,1.2237298E1,6.434366E2,1.5508461E3],"tree_param":{"num_deleted":"0","num_feature":"52","num_nodes":"49","size_leaf_vector":"1"}},{"base_weights":[-6.085603E-3,1.6733626E-1,-1.3514243E-1,2.089096E-1,-1.5126889E0,-7.5336516E-2,-6.564725E-1,-2.0179064E-3,4.264958E-1,-2.7596104E0,2.8242677E-1,1.706056E-1,-2.1755259E-1,-9.5780593E-1,4.553439E-2,4.1619855E-1,-1.562676E-1,2.2959952E0,3.6003563E-1,-1.3286677E-1,-2.5490817E-2,3.2681946E-2,-2.0811029E-2,3.1261972E-1,-4.0443486E-1,-2.5209782E-1,1.1075248E0,-3.2598636E-1,-1.4507364E0,3.6580246E-2,-2.4300857E-1,8.946821E-3,7.1998484E-2,-1.06986035E-2,1.1868163E-2,1.3828872E-1,1.4620016E-2,3.2098237E-2,7.0586405E-3,3.0243848E-2,6.102469E-3,-1.8077387E-2,2.7450154E-2,1.0956992E-2,-9.977221E-3,8.3789594E-2,1.6657677E-3,5.819429E-3,-3.423953E-2,-1.6470239E-2,-5.7045076E-2,1.7558592E-3,-4.7322057E-2],"categories":[],"categories_nodes":[],"categories_segments":[],"categories_sizes":[],"default_left":[0,0,0,0,0,0,0,0,0,0,0,0,0,0,0,0,0,0,0,0,0,0,0,0,0,0,0,0,0,0,0,0,0,0,0,0,0,0,0,0,0,0,0,0,0,0,0,0,0,0,0,0,0],"id":20,"left_children":[1,3,5,7,9,11,13,15,17,19,21,23,25,27,29,31,33,35,37,-1,-1,-1,-1,39,41,43,45,47,49,-1,51,-1,-1,-1,-1,-1,-1,-1,-1,-1,-1,-1,-1,-1,-1,-1,-1,-1,-1,-1,-1,-1,-1],"loss_changes":[1.0588735E2,1.4132193E2,8.43506E1,9.055521E1,1.11418846E2,8.530981E1,5.920936E1,6.474557E1,1.1843059E2,8.414102E1,1.87435E1,7.318965E1,7.1122696E1,5.950345E1,2.9708685E1,6.1286705E1,8.1447815E1,1.3195303E2,8.247352E1,0E0,0E0,0E0,0E0,5.3868774E1,4.7452286E1,7.514437E1,6.9133224E1,3.807547E1,4.169229E1,0E0,2.8683067E1,0E0,0E0,0E0,0E0,0E0,0E0,0E0,0E0,0E0,0E0,0E0,0E0,0E0,0E0,0E0,0E0,0E0,0E0,0E0,0E0,0E0,0E0],"parents":[2147483647,0,0,1,1,2,2,3,3,4,4,5,5,6,6,7,7,8,8,9,9,10,10,11,11,12,12,13,13,14,14,15,15,16,16,17,17,18,18,23,23,24,24,25,25,26,26,27,27,28,28,30,30],"right_children":[2,4,6,8,10,12,14,16,18,20,22,24,26,28,30,32,34,36,38,-1,-1,-1,-1,40,42,44,46,48,50,-1,52,-1,-1,-1,-1,-1,-1,-1,-1,-1,-1,-1,-1,-1,-1,-1,-1,-1,-1,-1,-1,-1,-1],"split_conditions":[-2.387697E-2,7.26192E-1,1E0,4.3533154E-2,-2.035365E-1,-2.6004648E-1,3.3473507E-1,-5.9940815E-1,-6.3655615E-1,5.5807614E-1,1.5328658E-1,1.1719404E0,2.5395322E0,-6.240912E-1,-2.4882156E-1,1E0,5.796462E-1,2.555596E-1,-6.776893E-1,-1.3286677E-1,-2.5490817E-2,3.2681946E-2,-2.0811029E-2,-1.1043838E0,7.913471E-1,-1.1925759E0,-5.2683864E-2,1.8452497E-1,-1.5601873E-1,3.6580246E-2,-5.560481E-1,8.946821E-3,7.1998484E-2,-1.06986035E-2,1.1868163E-2,1.3828872E-1,1.4620016E-2,3.2098237E-2,7.0586405E-3,3.0243848E-2,6.102469E-3,-1.8077387E-2,2.7450154E-2,1.0956992E-2,-9.977221E-3,8.3789594E-2,1.6657677E-3,5.819429E-3,-3.423953E-2,-1.6470239E-2,-5.7045076E-2,1.7558592E-3,-4.7322057E-2],"split_indices":[41,6,44,5,41,14,13,31,39,19,2,31,0,27,29,42,27,33,27,0,0,0,0,27,6,2,6,31,15,0,6,0,0,0,0,0,0,0,0,0,0,0,0,0,0,0,0,0,0,0,0,0,0],"split_type":[0,0,0,0,0,0,0,0,0,0,0,0,0,0,0,0,0,0,0,0,0,0,0,0,0,0,0,0,0,0,0,0,0,0,0,0,0,0,0,0,0,0,0,0,0,0,0,0,0,0,0,0,0],"sum_hessian":[4.7273354E3,2.0160704E3,2.711265E3,1.9692114E3,4.6859104E1,2.4346406E3,2.7662433E2,1.00044495E3,9.687665E2,2.708334E1,1.9775764E1,8.913589E2,1.5432816E3,1.9323512E2,8.338921E1,2.6830307E2,7.3214185E2,3.08505E1,9.3791595E2,1.2988651E1,1.4094687E1,1.0811026E1,8.964738E0,7.158343E2,1.7552458E2,1.5057955E3,3.7486164E1,8.6320786E1,1.0691433E2,1.5317655E1,6.807156E1,2.555097E2,1.2793351E1,5.379236E2,1.9421829E2,1.2128252E1,1.8722248E1,1.3767677E2,8.002392E2,9.46601E1,6.211742E2,1.536836E2,2.1840986E1,1.7255661E2,1.3332389E3,1.3060802E1,2.4425362E1,5.3488213E1,3.283257E1,3.7259235E1,6.96551E1,5.6962055E1,1.1109505E1],"tree_param":{"num_deleted":"0","num_feature":"52","num_nodes":"53","size_leaf_vector":"1"}},{"base_weights":[-8.297859E-3,5.002071E-1,-5.641385E-2,1.6229686E-1,1.0470191E0,3.1690198E-1,-9.964588E-2,5.1923853E-1,-4.1475576E-1,2.810357E0,5.6939614E-1,2.4890031E-1,9.346093E-2,-2.3455536E-1,1.3459903E-2,1.448942E0,2.0972548E-1,-6.741664E-1,7.828236E-1,1.2500787E-1,3.0278552E-2,-8.904845E-1,8.710043E-1,-1.9502427E-1,5.49908E-1,-3.4295905E-1,2.9210946E-1,1.1340931E-1,-3.3983412E-1,6.803566E-2,-2.4357231E-2,-6.2328565E-4,6.114546E-2,-7.455397E-2,-1.1102304E-2,3.3721685E-2,7.694944E-3,9.586569E-3,-6.29845E-2,5.0218347E-2,-6.936313E-3,8.602687E-3,-2.1133002E-2,3.443348E-2,6.9374214E-3,5.4400954E-3,-1.3572367E-2,4.560061E-2,-1.8567883E-4,7.877718E-3,-7.523919E-3,1.4072734E-2,-1.994705E-2],"categories":[],"categories_nodes":[],"categories_segments":[],"categories_sizes":[],"default_left":[0,0,0,0,0,0,0,0,0,0,0,0,0,0,0,0,0,0,0,0,0,0,0,0,0,0,0,0,0,0,0,0,0,0,0,0,0,0,0,0,0,0,0,0,0,0,0,0,0,0,0,0,0],"id":21,"left_children":[1,3,5,7,9,11,13,15,17,19,21,23,-1,25,27,29,31,33,35,-1,-1,37,39,41,43,45,47,49,51,-1,-1,-1,-1,-1,-1,-1,-1,-1,-1,-1,-1,-1,-1,-1,-1,-1,-1,-1,-1,-1,-1,-1,-1],"loss_changes":[1.16220505E2,7.528E1,7.01091E1,5.3252605E1,1.27692474E2,8.3548904E1,5.9470493E1,4.495242E1,3.1747765E1,7.044379E1,5.681552E1,5.9384136E1,0E0,1.01651535E2,7.4867355E1,7.679694E1,5.1969418E1,4.300802E1,2.4502087E0,0E0,0E0,3.441986E1,9.412445E1,4.46439E1,4.9557922E1,8.4846954E1,1.1169235E2,8.999448E1,1.2357013E2,0E0,0E0,0E0,0E0,0E0,0E0,0E0,0E0,0E0,0E0,0E0,0E0,0E0,0E0,0E0,0E0,0E0,0E0,0E0,0E0,0E0,0E0,0E0,0E0],"parents":[2147483647,0,0,1,1,2,2,3,3,4,4,5,5,6,6,7,7,8,8,9,9,10,10,11,11,13,13,14,14,15,15,16,16,17,17,18,18,21,21,22,22,23,23,24,24,25,25,26,26,27,27,28,28],"right_children":[2,4,6,8,10,12,14,16,18,20,22,24,-1,26,28,30,32,34,36,-1,-1,38,40,42,44,46,48,50,52,-1,-1,-1,-1,-1,-1,-1,-1,-1,-1,-1,-1,-1,-1,-1,-1,-1,-1,-1,-1,-1,-1,-1,-1],"split_conditions":[-8.986205E-1,-8.119416E-2,-6.3655615E-1,6.8743774E-3,-1.7049968E-2,-4.741084E-2,4.912031E-2,2.2415703E-2,-2.6223716E-1,1.0162428E-1,-1.794191E-1,-7.83011E-1,9.346093E-2,9.41534E-1,1.039854E0,4.6430048E-1,1E0,-4.7051176E-1,2.05759E-1,1.2500787E-1,3.0278552E-2,3.8587415E-1,2.0555465E-1,-3.3543494E-2,-1.2495152E0,-7.896906E-1,-2.0871371E-1,5.6570965E-1,3.3800825E-1,6.803566E-2,-2.4357231E-2,-6.2328565E-4,6.114546E-2,-7.455397E-2,-1.1102304E-2,3.3721685E-2,7.694944E-3,9.586569E-3,-6.29845E-2,5.0218347E-2,-6.936313E-3,8.602687E-3,-2.1133002E-2,3.443348E-2,6.9374214E-3,5.4400954E-3,-1.3572367E-2,4.560061E-2,-1.8567883E-4,7.877718E-3,-7.523919E-3,1.4072734E-2,-1.994705E-2],"split_indices":[40,6,39,15,7,2,7,27,6,15,2,39,0,27,31,13,46,27,35,0,0,16,1,40,2,27,41,6,2,0,0,0,0,0,0,0,0,0,0,0,0,0,0,0,0,0,0,0,0,0,0,0,0],"split_type":[0,0,0,0,0,0,0,0,0,0,0,0,0,0,0,0,0,0,0,0,0,0,0,0,0,0,0,0,0,0,0,0,0,0,0,0,0,0,0,0,0,0,0,0,0,0,0,0,0,0,0,0,0],"sum_hessian":[4.7493706E3,4.0856616E2,4.340804E3,2.5434773E2,1.5421843E2,4.4872266E2,3.8920818E3,1.5748239E2,9.686534E1,3.0697903E1,1.2352053E2,4.4027353E2,8.449143E0,1.7747863E3,2.1172954E3,3.7333263E1,1.20149124E2,8.047465E1,1.6390692E1,1.5947779E1,1.4750123E1,2.0367455E1,1.03153076E2,1.779191E2,2.623544E2,1.4727307E3,3.020555E2,1.6518885E3,4.6540698E2,2.7466686E1,9.866579E0,1.0835713E2,1.1791989E1,9.413191E0,7.1061455E1,8.335324E0,8.055368E0,1.0832052E1,9.535402E0,5.91833E1,4.396978E1,9.1686714E1,8.623238E1,8.918781E1,1.731666E2,2.538093E2,1.2189214E3,5.756702E1,2.4448851E2,1.1726649E3,4.7922366E2,1.3298203E2,3.3242496E2],"tree_param":{"num_deleted":"0","num_feature":"52","num_nodes":"53","size_leaf_vector":"1"}},{"base_weights":[-8.89193E-3,4.5242974E-1,-5.250319E-2,7.344316E-1,-1.03445195E-1,2.9094929E-1,-9.5444836E-2,8.271633E-1,-4.3764804E-2,-8.470921E-1,7.155594E-1,1.095922E-1,1.0928886E0,-1.4286579E-1,2.956616E-1,1.1649045E0,2.3392172E-1,-1.9618945E0,-2.590355E-1,1.7009406E0,2.1641938E-1,1.381557E0,-1.5819779E-2,-2.1747838E-1,1.9665009E0,1.7955819E-1,-2.0608506E-1,6.702874E-1,-3.893885E-1,2.2594444E-2,5.4229185E-2,1.1890223E-2,-2.6866687E-2,-1.0238039E-1,-1.3816521E-2,1.0867428E-2,-3.8785033E-2,9.360728E-2,-3.730491E-3,-1.03125665E-2,4.355244E-2,1.16002455E-1,4.358021E-3,4.9473126E-3,-2.1822596E-2,-2.327924E-2,3.909489E-2,8.557668E-2,-8.782886E-3,-3.652263E-2,8.234709E-3,-1.9484969E-3,-1.1570794E-2,9.378571E-2,1.5261179E-2,-1.9055229E-2,2.5483359E-2],"categories":[],"categories_nodes":[],"categories_segments":[],"categories_sizes":[],"default_left":[0,0,0,0,0,0,0,0,0,0,0,0,0,0,0,0,0,0,0,0,0,0,0,0,0,0,0,0,0,0,0,0,0,0,0,0,0,0,0,0,0,0,0,0,0,0,0,0,0,0,0,0,0,0,0,0,0],"id":22,"left_children":[1,3,5,7,9,11,13,15,-1,17,19,21,23,25,27,29,31,33,35,37,39,41,43,45,47,49,51,53,55,-1,-1,-1,-1,-1,-1,-1,-1,-1,-1,-1,-1,-1,-1,-1,-1,-1,-1,-1,-1,-1,-1,-1,-1,-1,-1,-1,-1],"loss_changes":[9.556886E1,6.4584885E1,6.407775E1,5.7738922E1,8.625246E1,6.9722595E1,7.1697845E1,5.186035E1,0E0,4.718356E1,3.2022003E1,6.3502304E1,1.0263239E2,7.034069E1,1.0783154E2,4.0919098E1,1.86082E1,5.0976692E1,3.3878445E1,5.8964447E1,3.3849308E1,1.0780511E2,4.69577E1,3.346821E1,1.09182236E2,7.5491516E1,7.295028E1,1.0367083E2,4.6350807E1,0E0,0E0,0E0,0E0,0E0,0E0,0E0,0E0,0E0,0E0,0E0,0E0,0E0,0E0,0E0,0E0,0E0,0E0,0E0,0E0,0E0,0E0,0E0,0E0,0E0,0E0,0E0,0E0],"parents":[2147483647,0,0,1,1,2,2,3,3,4,4,5,5,6,6,7,7,9,9,10,10,11,11,12,12,13,13,14,14,15,15,16,16,17,17,18,18,19,19,20,20,21,21,22,22,23,23,24,24,25,25,26,26,27,27,28,28],"right_children":[2,4,6,8,10,12,14,16,-1,18,20,22,24,26,28,30,32,34,36,38,40,42,44,46,48,50,52,54,56,-1,-1,-1,-1,-1,-1,-1,-1,-1,-1,-1,-1,-1,-1,-1,-1,-1,-1,-1,-1,-1,-1,-1,-1,-1,-1,-1,-1],"split_conditions":[-8.986205E-1,2.0452863E-2,-6.227965E-1,5.9830374E-1,-2.6223716E-1,-2.4111295E-1,1E0,2.5397012E-1,-4.3764804E-2,-5.80237E-2,-2.9145724E-1,-7.9155314E-1,-2.5534493E-1,-9.679258E-1,1.425719E0,-5.2683864E-2,1E0,-8.9009774E-1,1.7908165E-1,6.791389E-1,1E0,-6.050512E-1,-6.905971E-1,-7.0370764E-1,2.8816944E-1,-8.5737145E-1,1.9483529E-1,2.0679171E-1,2.767257E0,2.2594444E-2,5.4229185E-2,1.1890223E-2,-2.6866687E-2,-1.0238039E-1,-1.3816521E-2,1.0867428E-2,-3.8785033E-2,9.360728E-2,-3.730491E-3,-1.03125665E-2,4.355244E-2,1.16002455E-1,4.358021E-3,4.9473126E-3,-2.1822596E-2,-2.327924E-2,3.909489E-2,8.557668E-2,-8.782886E-3,-3.652263E-2,8.234709E-3,-1.9484969E-3,-1.1570794E-2,9.378571E-2,1.5261179E-2,-1.9055229E-2,2.5483359E-2],"split_indices":[40,15,39,6,6,7,50,32,0,16,1,36,5,27,28,6,45,5,13,16,43,29,7,31,7,5,29,0,31,0,0,0,0,0,0,0,0,0,0,0,0,0,0,0,0,0,0,0,0,0,0,0,0,0,0,0,0],"split_type":[0,0,0,0,0,0,0,0,0,0,0,0,0,0,0,0,0,0,0,0,0,0,0,0,0,0,0,0,0,0,0,0,0,0,0,0,0,0,0,0,0,0,0,0,0,0,0,0,0,0,0,0,0,0,0,0,0],"sum_hessian":[4.7498364E3,4.0822992E2,4.3416064E3,2.7064557E2,1.3758434E2,4.8070016E2,3.8609062E3,2.6094946E2,9.696117E0,7.220165E1,6.5382675E1,3.940983E2,8.6601875E1,3.4449883E3,4.1591785E2,1.6483951E2,9.6109955E1,2.3202734E1,4.899892E1,2.0229761E1,4.5152916E1,3.3714855E1,3.6038342E2,3.5150852E1,5.1451023E1,5.636219E2,2.8813665E3,2.6909558E2,1.4682228E2,1.0331036E2,6.1529144E1,8.5316666E1,1.0793287E1,1.043742E1,1.2765313E1,3.1296413E1,1.7702507E1,1.0643951E1,9.58581E0,3.1947554E1,1.3205361E1,9.732793E0,2.3982061E1,2.8839352E2,7.1989914E1,2.6521175E1,8.629677E0,3.664329E1,1.4807733E1,3.4225117E1,5.293967E2,1.6156406E3,1.2657258E3,1.4270047E1,2.5482552E2,1.2346308E2,2.3359198E1],"tree_param":{"num_deleted":"0","num_feature":"52","num_nodes":"57","size_leaf_vector":"1"}},{"base_weights":[-9.2499005E-3,2.6691276E-1,-8.518367E-2,-2.1125594E-1,4.7769544E-1,2.1978268E-1,-1.3542937E-1,7.198274E-1,-4.833083E-1,3.4661123E-1,1.483161E0,-1.3063604E-1,6.283048E-1,-5.018366E-1,-4.8632864E-2,1.8034959E0,1.6169207E-2,-2.0111428E-1,-1.1549292E0,5.4264545E-1,-5.5655694E-1,1.9630536E0,-1.3813752E-1,-3.439526E-1,9.027093E-1,1.5302624E0,1.6662428E-1,6.6767156E-2,-7.184912E-1,1.3680482E-1,-2.2211188E-1,1.20710865E-1,1.26056615E-2,1.6475786E-2,-3.9349876E-2,-2.8211258E-2,1.0546503E-2,-1.1667163E-2,-9.137018E-2,1.4247044E-2,6.841635E-2,-4.1598316E-2,2.4289457E-2,8.066694E-2,1.5474871E-2,-2.5743414E-2,1.3915763E-2,-3.471535E-3,-4.7268398E-2,6.456123E-2,1.3019823E-2,8.7504305E-2,2.9236754E-2,-4.1088434E-3,5.182455E-2,1.0259459E-2,-7.0394196E-2,-3.574938E-2,-1.08036995E-2,2.1192392E-2,-4.4922085E-4,-9.57368E-3,1.2636537E-3],"categories":[],"categories_nodes":[],"categories_segments":[],"categories_sizes":[],"default_left":[0,0,0,0,0,0,0,0,0,0,0,0,0,0,0,0,0,0,0,0,0,0,0,0,0,0,0,0,0,0,0,0,0,0,0,0,0,0,0,0,0,0,0,0,0,0,0,0,0,0,0,0,0,0,0,0,0,0,0,0,0,0,0],"id":23,"left_children":[1,3,5,7,9,11,13,15,17,19,21,23,25,27,29,31,33,35,37,39,41,43,45,47,49,51,53,55,57,59,61,-1,-1,-1,-1,-1,-1,-1,-1,-1,-1,-1,-1,-1,-1,-1,-1,-1,-1,-1,-1,-1,-1,-1,-1,-1,-1,-1,-1,-1,-1,-1,-1],"loss_changes":[9.9641495E1,1.0352039E2,5.7177032E1,8.032715E1,9.244844E1,7.5794655E1,1.0170525E2,5.4300785E1,4.5659275E1,1.1261675E2,6.418854E1,6.3419785E1,1.0084841E2,7.571411E1,8.3468185E1,8.210274E1,3.3591736E1,7.227775E1,1.00925415E2,5.862529E1,1.3122812E2,6.2747314E1,9.694696E0,6.6249504E1,2.644075E1,5.6944748E1,7.84692E1,1.1453661E2,7.413994E1,1.08539024E2,3.444686E1,0E0,0E0,0E0,0E0,0E0,0E0,0E0,0E0,0E0,0E0,0E0,0E0,0E0,0E0,0E0,0E0,0E0,0E0,0E0,0E0,0E0,0E0,0E0,0E0,0E0,0E0,0E0,0E0,0E0,0E0,0E0,0E0],"parents":[2147483647,0,0,1,1,2,2,3,3,4,4,5,5,6,6,7,7,8,8,9,9,10,10,11,11,12,12,13,13,14,14,15,15,16,16,17,17,18,18,19,19,20,20,21,21,22,22,23,23,24,24,25,25,26,26,27,27,28,28,29,29,30,30],"right_children":[2,4,6,8,10,12,14,16,18,20,22,24,26,28,30,32,34,36,38,40,42,44,46,48,50,52,54,56,58,60,62,-1,-1,-1,-1,-1,-1,-1,-1,-1,-1,-1,-1,-1,-1,-1,-1,-1,-1,-1,-1,-1,-1,-1,-1,-1,-1,-1,-1,-1,-1,-1,-1],"split_conditions":[-4.948628E-1,-5.884123E-1,-1.0968812E0,-7.651027E-1,1E0,-1.1829212E0,-3.3173168E-1,-2.2621386E-2,-4.4780955E-1,7.761977E-1,2.7059412E-1,-5.1421013E-2,-6.3049E-1,-3.081669E-2,1.4199707E-2,1.3640639E-2,-9.0614194E-1,-2.8569737E-1,2.209322E-2,1.3495973E0,1.1677147E0,8.291507E-1,4.3623805E-1,-1.2396039E0,-1.8981849E0,-9.6899384E-1,-1.1660948E0,5.430032E-1,4.7306964E-1,-8.463748E-2,5.831915E-1,1.20710865E-1,1.26056615E-2,1.6475786E-2,-3.9349876E-2,-2.8211258E-2,1.0546503E-2,-1.1667163E-2,-9.137018E-2,1.4247044E-2,6.841635E-2,-4.1598316E-2,2.4289457E-2,8.066694E-2,1.5474871E-2,-2.5743414E-2,1.3915763E-2,-3.471535E-3,-4.7268398E-2,6.456123E-2,1.3019823E-2,8.7504305E-2,2.9236754E-2,-4.1088434E-3,5.182455E-2,1.0259459E-2,-7.0394196E-2,-3.574938E-2,-1.08036995E-2,2.1192392E-2,-4.4922085E-4,-9.57368E-3,1.2636537E-3],"split_indices":[40,7,2,29,42,6,0,15,5,37,1,29,31,41,14,13,5,31,31,38,36,12,5,1,2,1,0,6,40,29,16,0,0,0,0,0,0,0,0,0,0,0,0,0,0,0,0,0,0,0,0,0,0,0,0,0,0,0,0,0,0,0,0],"split_type":[0,0,0,0,0,0,0,0,0,0,0,0,0,0,0,0,0,0,0,0,0,0,0,0,0,0,0,0,0,0,0,0,0,0,0,0,0,0,0,0,0,0,0,0,0,0,0,0,0,0,0,0,0,0,0,0,0,0,0,0,0,0,0],"sum_hessian":[4.7491694E3,1.0225618E3,3.7266077E3,3.1255817E2,7.1000366E2,5.256211E2,3.2009866E3,6.976489E1,2.4279327E2,6.306705E2,7.93332E1,2.833997E2,2.4222137E2,6.107725E2,2.5902139E3,2.6123352E1,4.364154E1,1.7300056E2,6.979272E1,5.190332E2,1.1163728E2,6.098412E1,1.8349077E1,2.3617354E2,4.7226166E1,8.029383E1,1.6192755E2,1.6864064E2,4.421319E2,1.2516027E3,1.3386113E3,8.507224E0,1.7616127E1,3.208519E1,1.155635E1,7.3561386E1,9.943917E1,5.146082E1,1.8331898E1,5.021219E2,1.6911306E1,6.95176E1,4.211969E1,3.93795E1,2.1604618E1,8.119564E0,1.0229513E1,2.0123387E2,3.4939663E1,1.0808185E1,3.641798E1,2.0438845E1,5.9854984E1,1.3698122E2,2.4946327E1,1.529923E2,1.5648349E1,1.8830432E2,2.5382756E2,2.6207504E2,9.8952765E2,9.793822E2,3.592291E2],"tree_param":{"num_deleted":"0","num_feature":"52","num_nodes":"63","size_leaf_vector":"1"}},{"base_weights":[-2.6105397E-4,2.50141E-1,-8.673877E-2,9.94667E-3,5.179437E-1,2.3680778E-1,-1.3876292E-1,1.368964E0,-7.125646E-2,7.780014E-1,-3.04721E-2,1.3144456E-2,1.1087086E0,-6.1460173E-1,-6.8683766E-2,9.7934596E-2,-2.9829222E-1,-1.14355884E-1,5.5124544E-2,1.0042197E-1,6.706128E-1,-2.5487974E-1,1.2968036E0,-1.6787647E-1,8.822749E-1,1.9141015E0,-4.9015918E-1,4.230625E-2,-6.884572E-1,-4.4432113E-1,-1.4167922E-2,2.2106446E-2,-3.3970423E-2,-1.3279363E-3,-4.4346057E-2,8.5710526E-2,1.8043786E-2,6.057881E-3,-3.7505563E-2,-2.741621E-3,6.0855996E-2,2.5078554E-2,-1.0600459E-2,1.4507596E-2,6.8631954E-2,1.11361966E-1,3.6983397E-2,-3.191424E-2,1.486911E-2,-5.8852434E-2,-1.7708557E-2,-7.352043E-3,-5.8811575E-2,5.325283E-3,-4.688073E-3],"categories":[],"categories_nodes":[],"categories_segments":[],"categories_sizes":[],"default_left":[0,0,0,0,0,0,0,0,0,0,0,0,0,0,0,0,0,0,0,0,0,0,0,0,0,0,0,0,0,0,0,0,0,0,0,0,0,0,0,0,0,0,0,0,0,0,0,0,0,0,0,0,0,0,0],"id":24,"left_children":[1,3,5,7,9,11,13,15,17,19,21,23,25,27,29,-1,31,33,-1,-1,35,37,39,41,43,45,47,-1,49,51,53,-1,-1,-1,-1,-1,-1,-1,-1,-1,-1,-1,-1,-1,-1,-1,-1,-1,-1,-1,-1,-1,-1,-1,-1],"loss_changes":[1.0274071E2,7.821518E1,5.9436455E1,7.156792E1,8.225304E1,9.509909E1,1.01199E2,1.1811512E2,5.024334E1,1.0248328E2,5.6075394E1,6.200914E1,1.3043811E2,6.0090317E1,5.4236755E1,0E0,2.008045E1,5.676273E1,0E0,0E0,5.294954E1,7.416089E1,2.8394886E1,6.1072956E1,3.5318253E1,7.161078E1,2.0892223E1,0E0,4.4365112E1,1.0002952E2,6.3237778E1,0E0,0E0,0E0,0E0,0E0,0E0,0E0,0E0,0E0,0E0,0E0,0E0,0E0,0E0,0E0,0E0,0E0,0E0,0E0,0E0,0E0,0E0,0E0,0E0],"parents":[2147483647,0,0,1,1,2,2,3,3,4,4,5,5,6,6,7,7,8,8,9,9,10,10,11,11,12,12,13,13,14,14,16,16,17,17,20,20,21,21,22,22,23,23,24,24,25,25,26,26,28,28,29,29,30,30],"right_children":[2,4,6,8,10,12,14,16,18,20,22,24,26,28,30,-1,32,34,-1,-1,36,38,40,42,44,46,48,-1,50,52,54,-1,-1,-1,-1,-1,-1,-1,-1,-1,-1,-1,-1,-1,-1,-1,-1,-1,-1,-1,-1,-1,-1,-1,-1],"split_conditions":[-3.8951814E-1,7.30566E-2,-1.0968812E0,-8.5849506E-1,4.508688E-1,-9.388953E-1,-6.4870703E-1,-5.7875688E-5,2.447251E0,-6.3655615E-1,1E0,4.852712E-3,9.491766E-2,-1.9469424E0,-3.3173168E-1,9.7934596E-2,-2.094571E0,1.078951E0,5.5124544E-2,1.0042197E-1,-1.0268394E0,8.1941265E-1,-4.512895E-1,-2.0162063E0,-1.0491258E0,-6.893647E-1,6.226529E-1,4.230625E-2,-9.0051776E-1,6.7164755E-1,-1.22220136E-1,2.2106446E-2,-3.3970423E-2,-1.3279363E-3,-4.4346057E-2,8.5710526E-2,1.8043786E-2,6.057881E-3,-3.7505563E-2,-2.741621E-3,6.0855996E-2,2.5078554E-2,-1.0600459E-2,1.4507596E-2,6.8631954E-2,1.11361966E-1,3.6983397E-2,-3.191424E-2,1.486911E-2,-5.8852434E-2,-1.7708557E-2,-7.352043E-3,-5.8811575E-2,5.325283E-3,-4.688073E-3],"split_indices":[40,5,2,31,14,5,5,13,39,39,42,29,27,12,0,0,2,39,0,0,35,37,15,2,0,6,37,0,1,6,14,0,0,0,0,0,0,0,0,0,0,0,0,0,0,0,0,0,0,0,0,0,0,0,0],"split_type":[0,0,0,0,0,0,0,0,0,0,0,0,0,0,0,0,0,0,0,0,0,0,0,0,0,0,0,0,0,0,0,0,0,0,0,0,0,0,0,0,0,0,0,0,0,0,0,0,0,0,0,0,0,0,0],"sum_hessian":[4.7421143E3,1.215745E3,3.5263694E3,6.423961E2,5.7334894E2,4.8695706E2,3.0394124E3,3.457044E1,6.078257E2,3.8860202E2,1.8474692E2,3.8934128E2,9.761577E1,3.8780627E2,2.651606E3,1.53372755E1,1.9233164E1,5.9634515E2,1.148053E1,1.3094584E1,3.7550742E2,1.5953957E2,2.5207352E1,3.2337326E2,6.5968025E1,6.473684E1,3.2878925E1,1.2278717E1,3.7552756E2,3.3377628E2,2.3178298E3,8.578867E0,1.0654296E1,5.692991E2,2.7046097E1,8.952037E0,3.665554E2,1.1030629E2,4.9233276E1,9.210556E0,1.5996796E1,4.9168217E1,2.7420505E2,5.3595078E1,1.2372949E1,1.5264523E1,4.947232E1,2.0812464E1,1.2066461E1,2.401752E1,3.5151004E2,2.971745E2,3.6601765E1,9.859697E2,1.3318601E3],"tree_param":{"num_deleted":"0","num_feature":"52","num_nodes":"55","size_leaf_vector":"1"}},{"base_weights":[4.0726714E-5,2.2985184E-1,-7.7721484E-2,-2.1784278E-2,5.546166E-1,8.754785E-2,-1.5833004E-1,-1.1455608E-1,1.2112851E0,1.2260075E0,3.174479E-1,-1.4462219E-1,3.524555E-1,-4.0826884E-1,-1.8978367E-2,1.1185099E-1,-6.3816035E-1,4.9215582E-1,9.375708E-2,-3.180366E-2,1.450417E0,3.9630637E-1,-4.439112E-2,4.2932983E-2,-9.873594E-1,8.2406944E-1,-1.5232624E-1,-5.479654E-1,4.9543774E-1,1.6422091E-1,-3.6847937E-1,6.511687E-2,6.1436516E-4,-6.004034E-2,-1.3882012E-2,3.5438325E-2,-1.1656812E-2,8.2173295E-2,2.2434525E-2,-2.0381795E-2,1.5426714E-2,-1.1793026E-3,5.4556385E-2,-4.1900035E-2,3.9809933E-3,2.1288123E-2,8.084098E-2,-1.8372895E-2,1.0165728E-2,-6.831656E-3,-2.4375612E-2,4.8640627E-2,5.659433E-3,-1.18038915E-2,1.0609508E-2,-1.9528044E-2,3.277687E-3],"categories":[],"categories_nodes":[],"categories_segments":[],"categories_sizes":[],"default_left":[0,0,0,0,0,0,0,0,0,0,0,0,0,0,0,0,0,0,0,0,0,0,0,0,0,0,0,0,0,0,0,0,0,0,0,0,0,0,0,0,0,0,0,0,0,0,0,0,0,0,0,0,0,0,0,0,0],"id":25,"left_children":[1,3,5,7,9,11,13,15,17,19,21,23,25,27,29,31,33,35,-1,-1,37,39,-1,41,43,45,47,49,51,53,55,-1,-1,-1,-1,-1,-1,-1,-1,-1,-1,-1,-1,-1,-1,-1,-1,-1,-1,-1,-1,-1,-1,-1,-1,-1,-1],"loss_changes":[8.537571E1,9.885763E1,4.757066E1,7.810346E1,8.295999E1,7.210857E1,8.347438E1,7.570235E1,6.1936592E1,7.336827E1,5.664691E1,9.899689E1,1.3072447E2,1.0891489E2,9.897163E1,8.332922E1,4.373774E1,2.363343E1,0E0,0E0,1.0888675E2,4.862877E1,0E0,7.5356995E1,5.2877144E1,5.621263E1,6.0569668E1,6.2503006E1,3.9018475E1,1.0733858E2,7.1999756E1,0E0,0E0,0E0,0E0,0E0,0E0,0E0,0E0,0E0,0E0,0E0,0E0,0E0,0E0,0E0,0E0,0E0,0E0,0E0,0E0,0E0,0E0,0E0,0E0,0E0,0E0],"parents":[2147483647,0,0,1,1,2,2,3,3,4,4,5,5,6,6,7,7,8,8,9,9,10,10,11,11,12,12,13,13,14,14,15,15,16,16,17,17,20,20,21,21,23,23,24,24,25,25,26,26,27,27,28,28,29,29,30,30],"right_children":[2,4,6,8,10,12,14,16,18,20,22,24,26,28,30,32,34,36,-1,-1,38,40,-1,42,44,46,48,50,52,54,56,-1,-1,-1,-1,-1,-1,-1,-1,-1,-1,-1,-1,-1,-1,-1,-1,-1,-1,-1,-1,-1,-1,-1,-1,-1,-1],"split_conditions":[-4.043961E-1,-1.3455895E-1,-2.2724281E-1,1.314361E0,-3.8222516E-1,-3.7332374E-1,1.1987402E-2,2.2175187E-1,6.9331026E-1,-9.282454E-1,7.082275E-1,1.2556936E-2,1.7268486E-1,1.1019772E0,1.0562667E0,-1.7390959E0,-1.887111E0,5.491829E-1,9.375708E-2,-3.180366E-2,-2.4286768E-1,-2.3060113E-1,-4.439112E-2,-4.4694656E-1,9.1139334E-1,7.146252E-1,-2.0460857E-1,9.7146764E-2,-6.5968925E-1,-2.2004025E-1,2.2689588E0,6.511687E-2,6.1436516E-4,-6.004034E-2,-1.3882012E-2,3.5438325E-2,-1.1656812E-2,8.2173295E-2,2.2434525E-2,-2.0381795E-2,1.5426714E-2,-1.1793026E-3,5.4556385E-2,-4.1900035E-2,3.9809933E-3,2.1288123E-2,8.084098E-2,-1.8372895E-2,1.0165728E-2,-6.831656E-3,-2.4375612E-2,4.8640627E-2,5.659433E-3,-1.18038915E-2,1.0609508E-2,-1.9528044E-2,3.277687E-3],"split_indices":[40,6,39,27,29,5,0,14,0,0,6,6,27,29,39,0,6,39,0,0,1,2,0,0,41,12,30,6,2,7,39,0,0,0,0,0,0,0,0,0,0,0,0,0,0,0,0,0,0,0,0,0,0,0,0,0,0],"split_type":[0,0,0,0,0,0,0,0,0,0,0,0,0,0,0,0,0,0,0,0,0,0,0,0,0,0,0,0,0,0,0,0,0,0,0,0,0,0,0,0,0,0,0,0,0,0,0,0,0,0,0,0,0,0,0,0,0],"sum_hessian":[4.771732E3,1.2060742E3,3.565658E3,6.802494E2,5.258248E2,1.1680946E3,2.3975632E3,6.34489E2,4.576033E1,1.3486348E2,3.9096136E2,6.2259436E2,5.455003E2,8.563441E2,1.5412191E3,4.437862E2,1.9070284E2,3.516613E1,1.0594201E1,1.1309618E1,1.2355386E2,3.761273E2,1.4834102E1,5.106153E2,1.1197907E2,2.815662E2,2.639341E2,7.425656E2,1.1377852E2,1.0115035E3,5.2971564E2,1.683252E1,4.2695367E2,1.9239769E1,1.7146307E2,1.947351E1,1.5692617E1,4.1448387E1,8.210548E1,3.6049274E1,3.40078E2,4.89773E2,2.0842281E1,8.177888E1,3.0200193E1,2.6803076E2,1.3535421E1,1.3623398E2,1.2770013E2,3.379523E2,4.0461334E2,2.2389078E1,9.138944E1,2.5565117E2,7.5585236E2,3.3270273E2,1.9701294E2],"tree_param":{"num_deleted":"0","num_feature":"52","num_nodes":"57","size_leaf_vector":"1"}},{"base_weights":[-2.6230695E-2,3.422586E-1,-7.334584E-2,3.9868453E-1,-6.5483734E-2,4.15478E-2,-2.0732456E-1,3.4192744E-1,8.9681216E-2,5.9991443E-1,-2.351736E-2,-1.8715909E0,-1.8528368E-1,5.7431287E-1,-1.3151667E-1,3.3665538E-1,2.198537E0,-4.84515E-2,1.4087497E0,-6.4208596E-3,-8.883832E-2,7.9051685E-1,-2.2453892E-1,1.995721E-2,-3.708371E-2,-9.594367E-3,4.565834E-2,4.6483047E-2,4.84937E-3,9.946126E-2,-1.247039E-2,-1.4417912E-2,5.513462E-4,-2.3327188E-3,6.020454E-2,-4.1434956E-3,3.3209525E-2,-2.2089286E-2,-5.0593526E-3],"categories":[],"categories_nodes":[],"categories_segments":[],"categories_sizes":[],"default_left":[0,0,0,0,0,0,0,0,0,0,0,0,0,0,0,0,0,0,0,0,0,0,0,0,0,0,0,0,0,0,0,0,0,0,0,0,0,0,0],"id":26,"left_children":[1,3,5,7,-1,9,11,13,-1,15,17,19,21,23,25,27,29,31,33,-1,-1,35,37,-1,-1,-1,-1,-1,-1,-1,-1,-1,-1,-1,-1,-1,-1,-1,-1],"loss_changes":[8.281635E1,7.841642E1,6.518989E1,7.5310905E1,0E0,8.293849E1,7.059795E1,5.7623795E1,0E0,9.827731E1,7.281458E1,4.3633728E1,7.422887E1,5.9230392E1,5.4615025E1,4.309758E1,1.0031845E2,5.81544E1,3.1709229E1,0E0,0E0,2.2523869E1,5.2734657E1,0E0,0E0,0E0,0E0,0E0,0E0,0E0,0E0,0E0,0E0,0E0,0E0,0E0,0E0,0E0,0E0],"parents":[2147483647,0,0,1,1,2,2,3,3,5,5,6,6,7,7,9,9,10,10,11,11,12,12,13,13,14,14,15,15,16,16,17,17,18,18,21,21,22,22],"right_children":[2,4,6,8,-1,10,12,14,-1,16,18,20,22,24,26,28,30,32,34,-1,-1,36,38,-1,-1,-1,-1,-1,-1,-1,-1,-1,-1,-1,-1,-1,-1,-1,-1],"split_conditions":[-7.876309E-1,2.7978594E0,9.8159954E-2,1.311674E0,-6.5483734E-2,-5.485185E-1,-8.928146E-1,2.0452863E-2,8.9681216E-2,-4.906238E-2,2.6849403E0,-3.047338E0,-7.51178E-1,5.861751E-1,9.637361E-1,-7.9155314E-1,3.4403297E-1,-9.131134E-1,-1.7141131E0,-6.4208596E-3,-8.883832E-2,-1.957256E0,-8.2424E-1,1.995721E-2,-3.708371E-2,-9.594367E-3,4.565834E-2,4.6483047E-2,4.84937E-3,9.946126E-2,-1.247039E-2,-1.4417912E-2,5.513462E-4,-2.3327188E-3,6.020454E-2,-4.1434956E-3,3.3209525E-2,-2.2089286E-2,-5.0593526E-3],"split_indices":[40,2,12,38,0,29,31,15,0,5,0,7,31,6,27,36,27,15,14,0,0,6,1,0,0,0,0,0,0,0,0,0,0,0,0,0,0,0,0],"split_type":[0,0,0,0,0,0,0,0,0,0,0,0,0,0,0,0,0,0,0,0,0,0,0,0,0,0,0,0,0,0,0,0,0,0,0,0,0,0,0],"sum_hessian":[4.768341E3,5.3866315E2,4.2296777E3,5.286139E2,1.0049227E1,2.276957E3,1.9527207E3,5.1957227E2,9.041678E0,2.3624214E2,2.0407148E3,2.3210835E1,1.9295099E3,3.485072E2,1.7106505E2,2.0502516E2,3.1216986E1,2.0078326E3,3.2882095E1,1.0228401E1,1.2982433E1,7.2942665E1,1.8565671E3,3.331506E2,1.5356596E1,1.5513272E2,1.5932337E1,2.3730219E1,1.8129494E2,2.1550379E1,9.666608E0,2.676592E2,1.7401735E3,9.837189E0,2.3044907E1,1.8665693E1,5.427697E1,1.8005328E2,1.6765139E3],"tree_param":{"num_deleted":"0","num_feature":"52","num_nodes":"39","size_leaf_vector":"1"}},{"base_weights":[-1.0786428E-2,3.2399517E-1,-5.317431E-2,2.4717717E-1,9.829937E-2,-7.031596E-2,8.267193E-1,1.7614354E-1,8.558962E-2,-5.1788982E-2,-1.077504E0,1.443883E0,-2.0473817E-1,1.3081576E-1,7.079855E-2,-2.4914826E-1,2.4570893E-2,-2.028374E0,3.5894603E-1,2.415208E0,7.6197565E-1,-1.9584913E-2,8.608074E-3,8.5740555E-3,-1.3236784E-2,-1.4290191E-3,-2.1286512E-2,-8.4323725E-3,3.6421851E-3,-3.832384E-2,-1.2897623E-1,3.7267447E-2,-2.1973976E-3,9.25697E-2,3.338482E-2,-1.4980764E-2,3.6620528E-2],"categories":[],"categories_nodes":[],"categories_segments":[],"categories_sizes":[],"default_left":[0,0,0,0,0,0,0,0,0,0,0,0,0,0,0,0,0,0,0,0,0,0,0,0,0,0,0,0,0,0,0,0,0,0,0,0,0],"id":27,"left_children":[1,3,5,7,-1,9,11,13,-1,15,17,19,21,23,-1,25,27,29,31,33,35,-1,-1,-1,-1,-1,-1,-1,-1,-1,-1,-1,-1,-1,-1,-1,-1],"loss_changes":[6.801191E1,1.1982375E2,6.41812E1,9.595668E1,0E0,7.762984E1,5.2588226E1,4.9895035E1,0E0,6.192245E1,1.0446873E2,2.9616524E1,7.511649E0,4.5175797E1,0E0,1.0611505E2,8.767472E1,6.568614E1,1.2463031E1,9.833282E0,2.0538961E1,0E0,0E0,0E0,0E0,0E0,0E0,0E0,0E0,0E0,0E0,0E0,0E0,0E0,0E0,0E0,0E0],"parents":[2147483647,0,0,1,1,2,2,3,3,5,5,6,6,7,7,9,9,10,10,11,11,12,12,13,13,15,15,16,16,17,17,18,18,19,19,20,20],"right_children":[2,4,6,8,-1,10,12,14,-1,16,18,20,22,24,-1,26,28,30,32,34,36,-1,-1,-1,-1,-1,-1,-1,-1,-1,-1,-1,-1,-1,-1,-1,-1],"split_conditions":[-6.227965E-1,4.4459224E-1,1.1678803E0,-4.741084E-2,9.829937E-2,1.0451701E0,8.5859644E-1,1E0,8.558962E-2,-2.4533468E-1,1.0152467E0,5.430032E-1,7.6224065E-1,2.9584172E-1,7.079855E-2,6.545148E-2,-1.6404979E-1,2.8459412E-1,-1.1043838E0,7.1960546E-2,4.4334581E-1,-1.9584913E-2,8.608074E-3,8.5740555E-3,-1.3236784E-2,-1.4290191E-3,-2.1286512E-2,-8.4323725E-3,3.6421851E-3,-3.832384E-2,-1.2897623E-1,3.7267447E-2,-2.1973976E-3,9.25697E-2,3.338482E-2,-1.4980764E-2,3.6620528E-2],"split_indices":[39,5,5,2,0,5,14,43,0,0,7,6,6,27,0,6,7,34,27,2,